{"learner":{"attributes":{"best_iteration":"85","best_score":"0.9744406310862764","scikit_learn":"{\"_estimator_type\": \"regressor\"}"},"feature_names":[],"feature_types":[],"gradient_booster":{"model":{"cats":{"enc":[],"feature_segments":[],"sorted_idx":[]},"gbtree_model_param":{"num_parallel_tree":"1","num_trees":"106"},"iteration_indptr":[0,1,2,3,4,5,6,7,8,9,10,11,12,13,14,15,16,17,18,19,20,21,22,23,24,25,26,27,28,29,30,31,32,33,34,35,36,37,38,39,40,41,42,43,44,45,46,47,48,49,50,51,52,53,54,55,56,57,58,59,60,61,62,63,64,65,66,67,68,69,70,71,72,73,74,75,76,77,78,79,80,81,82,83,84,85,86,87,88,89,90,91,92,93,94,95,96,97,98,99,100,101,102,103,104,105,106],"tree_info":[0,0,0,0,0,0,0,0,0,0,0,0,0,0,0,0,0,0,0,0,0,0,0,0,0,0,0,0,0,0,0,0,0,0,0,0,0,0,0,0,0,0,0,0,0,0,0,0,0,0,0,0,0,0,0,0,0,0,0,0,0,0,0,0,0,0,0,0,0,0,0,0,0,0,0,0,0,0,0,0,0,0,0,0,0,0,0,0,0,0,0,0,0,0,0,0,0,0,0,0,0,0,0,0,0,0],"trees":[{"base_weights":[-2.4095366E-2,-1.3903385E0,1.4937279E0,-1.6899525E0,-7.162841E-1,6.8542695E-1,1.8182803E0,-1.8440527E0,-1.4872015E0,-1.0590706E0,-2.4002114E-1,3.3368134E-1,8.2046914E-1,5.478449E-1,2.041649E0,-1.9069529E0,-1.4478486E0,-1.4969925E0,-6.984723E-1,-8.2617676E-1,-1.2357558E0,2.7052065E-2,-9.349525E-1,2.8438014E-1,5.0795364E-1,2.3239781E-1,8.532585E-1,8.432441E-1,-8.4120315E-1,2.1877666E0,1.2021503E0,-1.6483939E0,-9.796136E-2,-1.5495071E0,3.0306002E-2,-8.1492645E-1,-1.5084816E0,5.5892337E-2,-5.9375E-2,-1.05535E0,1.3323225E0,-8.775856E-2,-1.16354E0,-4.7140616E-1,3.306601E-1,6.436374E-2,-1.006575E0,5.24038E-1,2.471446E-1,6.2477475E-1,1.8505791E-1,-7.190163E-1,4.3407816E-1,8.629036E-1,-3.726256E-2,3.8630977E-1,1.3542596E0,4.6723437E-2,-9.5903534E-1,1.6798085E0,2.2864027E0,-4.0752342E-1,1.4315798E0,-8.625171E-2,-6.357721E-2,-6.212194E-2,-9.152966E-2,-6.919105E-2,5.416624E-2,-6.8339415E-2,1.0829893E-2,-8.3516024E-2,-7.123522E-2,-3.661774E-2,-7.815347E-2,1.0016183E-1,-1.7129324E-2,5.273924E-2,-6.227951E-2,3.7106108E-2,-3.60112E-2,2.307826E-3,5.7743873E-2,-9.309105E-2,-3.9714374E-2,3.299293E-2,7.767126E-3,1.0263727E-2,2.3033591E-2,3.380266E-2,-2.328086E-3,1.2502019E-2,-5.1209214E-3,-4.742905E-2,-6.4971745E-3,3.6666729E-3,2.9313048E-2,4.381273E-3,4.3775618E-2,5.2377015E-2,-6.739173E-2,1.0305631E-1,3.6128398E-2,-5.8745172E-2,-2.037099E-2,7.4109904E-2,9.249853E-2,7.462208E-2,1.1773258E-1,-5.7032984E-2,2.9664902E-2,8.451989E-2,3.528383E-2],"categories":[],"categories_nodes":[],"categories_segments":[],"categories_sizes":[],"default_left":[0,0,0,0,0,0,0,0,0,0,0,0,0,0,0,0,0,0,0,0,0,0,0,0,0,0,0,0,0,0,0,0,0,0,0,0,0,0,0,0,0,0,0,0,0,0,0,0,0,0,0,0,0,0,0,0,0,0,0,0,0,0,0,0,0,0,0,0,0,0,0,0,0,0,0,0,0,0,0,0,0,0,0,0,0,0,0,0,0,0,0,0,0,0,0,0,0,0,0,0,0,0,0,0,0,0,0,0,0,0,0,0,0],"id":0,"left_children":[1,3,5,7,9,11,13,15,17,19,21,23,25,27,29,31,33,35,37,39,41,43,45,47,49,51,53,55,57,59,61,63,-1,65,67,69,71,-1,-1,73,75,-1,77,79,81,-1,83,85,87,89,91,93,95,97,-1,99,101,-1,103,105,107,109,111,-1,-1,-1,-1,-1,-1,-1,-1,-1,-1,-1,-1,-1,-1,-1,-1,-1,-1,-1,-1,-1,-1,-1,-1,-1,-1,-1,-1,-1,-1,-1,-1,-1,-1,-1,-1,-1,-1,-1,-1,-1,-1,-1,-1,-1,-1,-1,-1,-1,-1],"loss_changes":[5.4455806E3,2.7789282E2,3.2509985E2,2.7126709E1,6.9456314E1,1.67314E1,2.5059033E2,1.0671631E1,2.182434E0,9.1839905E0,3.3432846E1,7.233238E-1,4.776581E0,5.56927E1,8.985986E1,3.0147705E0,1.1767807E1,1.9992065E0,7.545055E0,5.581977E1,3.1716766E0,1.9980883E1,9.253811E0,5.933132E-1,6.7652225E-1,3.1903324E0,4.405014E0,2.5395401E1,5.91774E0,2.827539E1,4.2684372E1,2.326355E-1,0E0,4.0263977E0,1.0433743E1,5.4193726E0,3.0979004E0,0E0,0E0,1.5254372E1,1.3047207E1,0E0,2.4065598E1,1.5631868E1,1.9175102E1,0E0,7.4175224E0,3.9826035E-1,5.4914474E-1,5.478544E-1,1.5637518E-1,2.8242898E-1,6.706965E-1,2.2986908E0,0E0,7.021207E1,2.1729828E1,0E0,2.2600746E0,8.895569E-1,2.542163E1,1.168283E1,1.7594803E1,0E0,0E0,0E0,0E0,0E0,0E0,0E0,0E0,0E0,0E0,0E0,0E0,0E0,0E0,0E0,0E0,0E0,0E0,0E0,0E0,0E0,0E0,0E0,0E0,0E0,0E0,0E0,0E0,0E0,0E0,0E0,0E0,0E0,0E0,0E0,0E0,0E0,0E0,0E0,0E0,0E0,0E0,0E0,0E0,0E0,0E0,0E0,0E0,0E0,0E0],"parents":[2147483647,0,0,1,1,2,2,3,3,4,4,5,5,6,6,7,7,8,8,9,9,10,10,11,11,12,12,13,13,14,14,15,15,16,16,17,17,18,18,19,19,20,20,21,21,22,22,23,23,24,24,25,25,26,26,27,27,28,28,29,29,30,30,31,31,33,33,34,34,35,35,36,36,39,39,40,40,42,42,43,43,44,44,46,46,47,47,48,48,49,49,50,50,51,51,52,52,53,53,55,55,56,56,58,58,59,59,60,60,61,61,62,62],"right_children":[2,4,6,8,10,12,14,16,18,20,22,24,26,28,30,32,34,36,38,40,42,44,46,48,50,52,54,56,58,60,62,64,-1,66,68,70,72,-1,-1,74,76,-1,78,80,82,-1,84,86,88,90,92,94,96,98,-1,100,102,-1,104,106,108,110,112,-1,-1,-1,-1,-1,-1,-1,-1,-1,-1,-1,-1,-1,-1,-1,-1,-1,-1,-1,-1,-1,-1,-1,-1,-1,-1,-1,-1,-1,-1,-1,-1,-1,-1,-1,-1,-1,-1,-1,-1,-1,-1,-1,-1,-1,-1,-1,-1,-1,-1],"split_conditions":[3.1141222E0,2.355064E0,9.837804E0,2.228071E1,2.7359183E0,7.6566563E0,3.619718E0,2.1754918E0,2.3363857E0,9.6930027E-1,1.2843E0,5.87048E-1,3.8882077E-1,2.6452984E1,2.6061314E1,6.317929E-1,1.1783682E0,2.2497538E1,2.2994345E1,9.082713E-1,1.9695108E1,2.8389983E0,1.9816168E1,3.5324243E-1,6.8532836E-1,3.619718E0,6.15615E-1,1.1162169E0,1.228829E0,1.237328E1,4.0131435E0,6.881368E-1,-9.796136E-2,7.5093436E-1,2.1942859E0,2.2366198E1,2.5663754E1,5.5892337E-2,-5.9375E-2,1.237328E1,2.520225E0,-8.775856E-2,2.0281063E1,2.7589555E0,1.0216655E0,6.436374E-2,1.2976795E0,5.63765E0,6.5218687E0,5.207366E-1,7.365206E0,3.340508E0,4.5384774E0,3.1977375E0,-3.726256E-2,1.7486658E1,1.3161268E0,4.6723437E-2,3.5188367E0,1.1115675E1,3.8001275E0,1.5109369E0,2.7509907E1,-8.625171E-2,-6.357721E-2,-6.212194E-2,-9.152966E-2,-6.919105E-2,5.416624E-2,-6.8339415E-2,1.0829893E-2,-8.3516024E-2,-7.123522E-2,-3.661774E-2,-7.815347E-2,1.0016183E-1,-1.7129324E-2,5.273924E-2,-6.227951E-2,3.7106108E-2,-3.60112E-2,2.307826E-3,5.7743873E-2,-9.309105E-2,-3.9714374E-2,3.299293E-2,7.767126E-3,1.0263727E-2,2.3033591E-2,3.380266E-2,-2.328086E-3,1.2502019E-2,-5.1209214E-3,-4.742905E-2,-6.4971745E-3,3.6666729E-3,2.9313048E-2,4.381273E-3,4.3775618E-2,5.2377015E-2,-6.739173E-2,1.0305631E-1,3.6128398E-2,-5.8745172E-2,-2.037099E-2,7.4109904E-2,9.249853E-2,7.462208E-2,1.1773258E-1,-5.7032984E-2,2.9664902E-2,8.451989E-2,3.528383E-2],"split_indices":[3,3,4,4,3,4,3,3,3,5,2,2,2,4,4,5,2,4,4,5,4,3,4,2,2,3,5,2,2,4,3,2,0,2,3,4,4,0,0,4,3,0,4,3,2,0,5,3,3,5,4,3,3,3,0,4,5,0,3,4,3,2,4,0,0,0,0,0,0,0,0,0,0,0,0,0,0,0,0,0,0,0,0,0,0,0,0,0,0,0,0,0,0,0,0,0,0,0,0,0,0,0,0,0,0,0,0,0,0,0,0,0,0],"split_type":[0,0,0,0,0,0,0,0,0,0,0,0,0,0,0,0,0,0,0,0,0,0,0,0,0,0,0,0,0,0,0,0,0,0,0,0,0,0,0,0,0,0,0,0,0,0,0,0,0,0,0,0,0,0,0,0,0,0,0,0,0,0,0,0,0,0,0,0,0,0,0,0,0,0,0,0,0,0,0,0,0,0,0,0,0,0,0,0,0,0,0,0,0,0,0,0,0,0,0,0,0,0,0,0,0,0,0,0,0,0,0,0,0],"sum_hessian":[2.624E3,1.381E3,1.243E3,9.55E2,4.26E2,3.57E2,8.86E2,5.38E2,4.17E2,2.47E2,1.79E2,1E2,2.57E2,1.33E2,7.53E2,4.61E2,7.7E1,4.11E2,6E0,1.09E2,1.38E2,1.3E2,4.9E1,8E1,2E1,1.4E1,2.43E2,1.1E2,2.3E1,6.4E2,1.13E2,8.3E1,3.78E2,7.2E1,5E0,8E0,4.03E2,1E0,5E0,9.9E1,1E1,1.4E1,1.24E2,4.9E1,8.1E1,1E0,4.8E1,9E0,7.1E1,1.4E1,6E0,2E0,1.2E1,2.42E2,1E0,5.9E1,5.1E1,1E0,2.2E1,1.07E2,5.33E2,1.4E1,9.9E1,6.6E1,1.7E1,3.7E1,3.5E1,2E0,3E0,5E0,3E0,1.31E2,2.72E2,6.2E1,3.7E1,7E0,3E0,4E0,1.2E2,8E0,4.1E1,6.1E1,2E1,8E0,4E1,6E0,3E0,6.1E1,1E1,1.3E1,1E0,5E0,1E0,1E0,1E0,4E0,8E0,4E0,2.38E2,4.3E1,1.6E1,2.3E1,2.8E1,1.5E1,7E0,5.4E1,5.3E1,4.4E1,4.89E2,8E0,6E0,7.2E1,2.7E1],"tree_param":{"num_deleted":"0","num_feature":"6","num_nodes":"113","size_leaf_vector":"1"}},{"base_weights":[-3.914386E-3,-4.559825E-1,1.0227447E0,-3.203943E-1,-1.0433862E0,7.25569E-1,1.5152794E0,-6.5017784E-1,-3.9510105E-2,-9.36184E-1,-1.1444509E0,8.5645574E-1,-7.1899533E-1,8.2301146E-1,1.9374174E0,-1.5050398E-1,-7.1217954E-1,-2.0045315E-1,1.3456282E-1,-9.8487353E-1,-4.4004452E-1,-1.3395393E-2,-1.1480523E0,5.0213015E-1,1.1597683E0,-9.747221E-1,4.8968375E-1,4.3432507E-1,9.4902986E-1,2.1219919E0,1.5640184E0,-5.437506E-1,2.1701172E-1,-9.065277E-1,-4.7145712E-1,-1.4367176E0,-1.5679191E-1,-7.741014E-1,1.8149447E-1,-1.0804768E0,-7.369251E-1,7.903185E-1,-8.7941146E-1,-1.0770036E0,-6.34381E-2,5.4445994E-1,-1.0489901E0,1.2797804E0,2.8614348E-1,-1.0466228E0,1.4109182E-1,7.360602E-2,-4.303915E-2,4.849494E-1,-9.147183E-3,9.797144E-1,-2.2648151E-1,1.813901E0,2.3134093E0,1.2919967E0,9.49506E-2,-1.2688915E-2,-4.5423903E-2,3.6313569E-3,5.1154327E-2,-3.869204E-2,-7.005306E-2,3.401477E-2,-2.6140083E-2,-4.451577E-3,-8.269563E-2,-5.484229E-3,-5.7651885E-2,-4.336882E-2,6.245414E-4,1.53799895E-2,-7.788028E-3,-1.894648E-2,-5.5528075E-2,-1.5840951E-2,-6.1098244E-2,6.657321E-2,-7.133345E-4,-6.466069E-2,-9.055323E-3,-5.623723E-2,-1.5490546E-2,-3.039397E-4,3.298622E-2,-2.2140315E-2,-7.537859E-2,5.6233373E-2,9.142874E-2,2.1548448E-2,-6.0460865E-2,-2.0817125E-2,-6.001502E-2,-3.705738E-2,4.763927E-2,2.8949846E-2,1.434836E-2,3.7575282E-2,5.6369193E-2,3.853466E-2,-5.5520773E-2,7.221766E-2,1.13652386E-1,3.2830533E-2,1.16384886E-1,7.171101E-2,-4.4637937E-2],"categories":[],"categories_nodes":[],"categories_segments":[],"categories_sizes":[],"default_left":[0,0,0,0,0,0,0,0,0,0,0,0,0,0,0,0,0,0,0,0,0,0,0,0,0,0,0,0,0,0,0,0,0,0,0,0,0,0,0,0,0,0,0,0,0,0,0,0,0,0,0,0,0,0,0,0,0,0,0,0,0,0,0,0,0,0,0,0,0,0,0,0,0,0,0,0,0,0,0,0,0,0,0,0,0,0,0,0,0,0,0,0,0,0,0,0,0,0,0,0,0,0,0,0,0,0,0,0,0,0,0],"id":1,"left_children":[1,3,5,7,9,11,13,15,17,19,21,23,25,27,29,31,33,35,37,39,41,-1,43,45,47,49,51,53,55,57,59,61,63,65,67,69,71,73,75,77,79,81,83,85,-1,87,89,91,93,95,97,-1,-1,99,-1,101,103,105,107,109,-1,-1,-1,-1,-1,-1,-1,-1,-1,-1,-1,-1,-1,-1,-1,-1,-1,-1,-1,-1,-1,-1,-1,-1,-1,-1,-1,-1,-1,-1,-1,-1,-1,-1,-1,-1,-1,-1,-1,-1,-1,-1,-1,-1,-1,-1,-1,-1,-1,-1,-1],"loss_changes":[1.2099626E3,1.4382321E2,1.1555682E2,1.3632707E2,2.601471E0,9.496387E1,8.578308E1,2.08667E1,2.2327572E1,3.6732635E0,2.2906494E-1,4.8639526E1,1.345915E1,5.220703E0,9.431335E0,1.1101847E1,2.7736542E1,2.2121145E1,1.6473576E1,2.8542938E0,9.88489E0,0E0,8.294678E-2,1.4556408E1,2.5425812E1,2.955639E0,1.1881159E1,1.0261831E0,3.3239136E0,2.9395142E0,3.4696503E0,3.682599E0,4.581087E0,2.070105E1,1.6381565E1,3.9507008E0,1.8692652E1,1.4048538E0,1.5571232E1,1.879715E0,8.986191E0,2.1959848E0,3.522274E0,3.790329E0,0E0,1.3203175E1,1.0003471E0,1.6330475E1,7.234692E0,2.6966438E0,2.8544788E0,0E0,0E0,3.5519886E-1,0E0,1.9835205E0,3.5000992E0,5.3704224E0,1.5240479E-1,1.3398628E1,0E0,0E0,0E0,0E0,0E0,0E0,0E0,0E0,0E0,0E0,0E0,0E0,0E0,0E0,0E0,0E0,0E0,0E0,0E0,0E0,0E0,0E0,0E0,0E0,0E0,0E0,0E0,0E0,0E0,0E0,0E0,0E0,0E0,0E0,0E0,0E0,0E0,0E0,0E0,0E0,0E0,0E0,0E0,0E0,0E0,0E0,0E0,0E0,0E0,0E0,0E0],"parents":[2147483647,0,0,1,1,2,2,3,3,4,4,5,5,6,6,7,7,8,8,9,9,10,10,11,11,12,12,13,13,14,14,15,15,16,16,17,17,18,18,19,19,20,20,22,22,23,23,24,24,25,25,26,26,27,27,28,28,29,29,30,30,31,31,32,32,33,33,34,34,35,35,36,36,37,37,38,38,39,39,40,40,41,41,42,42,43,43,45,45,46,46,47,47,48,48,49,49,50,50,53,53,55,55,56,56,57,57,58,58,59,59],"right_children":[2,4,6,8,10,12,14,16,18,20,22,24,26,28,30,32,34,36,38,40,42,-1,44,46,48,50,52,54,56,58,60,62,64,66,68,70,72,74,76,78,80,82,84,86,-1,88,90,92,94,96,98,-1,-1,100,-1,102,104,106,108,110,-1,-1,-1,-1,-1,-1,-1,-1,-1,-1,-1,-1,-1,-1,-1,-1,-1,-1,-1,-1,-1,-1,-1,-1,-1,-1,-1,-1,-1,-1,-1,-1,-1,-1,-1,-1,-1,-1,-1,-1,-1,-1,-1,-1,-1,-1,-1,-1,-1,-1,-1],"split_conditions":[3.907283E0,2.6452984E1,7.5702057E0,1.5047885E0,2.7744009E1,2.7310236E1,1.136804E1,9.3634615E0,2.4669771E0,2.8365357E0,1.9522434E1,1.4051536E1,6.233538E0,7.8086762E0,2.3904327E1,7.412816E0,1.9180815E1,5.2635937E0,7.229644E0,2.8551882E1,2.635202E1,-1.3395393E-2,2.9907566E1,1.3966505E1,2.6019922E1,2.9587543E1,6.7528825E0,7.7002788E0,1.1282161E1,9.695399E0,1.0462605E1,7.2823006E-1,1.198988E0,1.758254E1,1.7902512E1,6.9457026E0,2.5939352E1,3.586246E0,2.1071493E1,2.6499077E1,3.0445208E1,3.5043457E0,2.9419413E1,2.9705317E1,-6.34381E-2,4.3267956E0,5.2552285E0,6.113963E0,6.7528825E0,2.7509907E1,3.9658008E0,7.360602E-2,-4.303915E-2,1.1956172E1,-9.147183E-3,8.994182E0,9.512185E0,2.0459942E1,1.1511094E1,1.0051634E1,9.49506E-2,-1.2688915E-2,-4.5423903E-2,3.6313569E-3,5.1154327E-2,-3.869204E-2,-7.005306E-2,3.401477E-2,-2.6140083E-2,-4.451577E-3,-8.269563E-2,-5.484229E-3,-5.7651885E-2,-4.336882E-2,6.245414E-4,1.53799895E-2,-7.788028E-3,-1.894648E-2,-5.5528075E-2,-1.5840951E-2,-6.1098244E-2,6.657321E-2,-7.133345E-4,-6.466069E-2,-9.055323E-3,-5.623723E-2,-1.5490546E-2,-3.039397E-4,3.298622E-2,-2.2140315E-2,-7.537859E-2,5.6233373E-2,9.142874E-2,2.1548448E-2,-6.0460865E-2,-2.0817125E-2,-6.001502E-2,-3.705738E-2,4.763927E-2,2.8949846E-2,1.434836E-2,3.7575282E-2,5.6369193E-2,3.853466E-2,-5.5520773E-2,7.221766E-2,1.13652386E-1,3.2830533E-2,1.16384886E-1,7.171101E-2,-4.4637937E-2],"split_indices":[0,4,0,0,4,4,4,4,0,0,1,1,0,4,4,1,1,1,4,1,1,0,1,1,4,4,0,4,4,0,0,0,0,4,4,4,4,0,4,4,1,0,1,1,0,0,0,0,0,4,0,0,0,0,0,4,0,1,4,0,0,0,0,0,0,0,0,0,0,0,0,0,0,0,0,0,0,0,0,0,0,0,0,0,0,0,0,0,0,0,0,0,0,0,0,0,0,0,0,0,0,0,0,0,0,0,0,0,0,0,0],"split_type":[0,0,0,0,0,0,0,0,0,0,0,0,0,0,0,0,0,0,0,0,0,0,0,0,0,0,0,0,0,0,0,0,0,0,0,0,0,0,0,0,0,0,0,0,0,0,0,0,0,0,0,0,0,0,0,0,0,0,0,0,0,0,0,0,0,0,0,0,0,0,0,0,0,0,0,0,0,0,0,0,0,0,0,0,0,0,0,0,0,0,0,0,0,0,0,0,0,0,0,0,0,0,0,0,0,0,0,0,0,0,0],"sum_hessian":[2.605E3,1.809E3,7.96E2,1.471E3,3.38E2,4.98E2,2.98E2,6.76E2,7.95E2,1.69E2,1.69E2,4.57E2,4.1E1,1.14E2,1.84E2,7.5E1,6.01E2,4.13E2,3.82E2,1.53E2,1.6E1,1E0,1.68E2,2.12E2,2.45E2,3.4E1,7E0,2.9E1,8.5E1,1.2E2,6.4E1,3.6E1,3.9E1,3.31E2,2.7E2,1.3E1,4E2,1.8E1,3.64E2,1.08E2,4.5E1,4E0,1.2E1,1.12E2,5.6E1,2.07E2,5E0,2.15E2,3E1,3.2E1,2E0,4E0,3E0,2.7E1,2E0,8.3E1,2E0,5E1,7E1,3.8E1,2.6E1,2.1E1,1.5E1,3.4E1,5E0,2.63E2,6.8E1,1.1E1,2.59E2,2E0,1.1E1,3.83E2,1.7E1,1.6E1,2E0,2.65E2,9.9E1,5E0,1.03E2,2.5E1,2E1,2E0,2E0,7E0,5E0,1.05E2,7E0,3.6E1,1.71E2,3E0,2E0,1.7E2,4.5E1,2.8E1,2E0,7E0,2.5E1,1E0,1E0,1.7E1,1E1,3.5E1,4.8E1,1E0,1E0,3E1,2E1,1E0,6.9E1,3.6E1,2E0],"tree_param":{"num_deleted":"0","num_feature":"6","num_nodes":"111","size_leaf_vector":"1"}},{"base_weights":[-2.4131218E-2,-1.2821153E0,1.3883079E0,-1.5150585E0,-5.144095E-1,6.4279985E-1,1.7157882E0,-1.5997329E0,-1.1340704E0,-9.079509E-1,-1.8055412E-1,3.5709003E-1,8.007078E-1,4.052165E-1,1.8890668E0,-1.7638967E0,-1.3956878E0,-9.235778E-1,-1.2773757E0,-7.002347E-1,-1.3010699E0,6.646809E-2,-7.5508624E-1,1.05840005E-1,4.0998432E-1,2.25953E-1,8.4039867E-1,7.2488976E-1,-9.2570484E-1,2.0432694E0,9.477872E-1,-1.568036E0,-1.8152409E0,-3.184933E-1,-1.4174131E0,-1.1699456E0,6.3159394E-1,-1.9562693E-1,-1.3356615E0,-8.625623E-1,2.6630425E-1,8.676714E-2,-1.3915013E0,-2.9306316E-1,6.227519E-1,4.577458E-2,-8.0481833E-1,1.4119591E-1,-1.15077436E-1,3.4547508E-1,6.002736E-1,4.9470884E-1,-5.180028E-1,8.50121E-1,-8.283666E-3,1.0558113E-1,1.3416233E0,-1.0612848E0,4.1257884E-2,1.3885286E0,2.1332002E0,1.527247E-1,1.413225E0,-7.89322E-2,-1.1354613E-2,-9.134482E-2,-5.297343E-2,-4.2208355E-2,9.717243E-2,-7.18195E-2,-2.8391937E-2,-4.918129E-3,-6.607338E-2,-1.6390575E-3,9.8426975E-2,-7.139011E-2,5.427275E-2,-8.700569E-2,-6.204912E-2,-3.4363884E-2,-6.278772E-2,-6.1413772E-2,4.607246E-2,-5.158133E-2,4.017203E-2,-8.934063E-2,-4.084911E-2,-5.232542E-3,-5.599928E-2,-1.3548031E-2,5.32139E-2,-2.6631847E-2,-5.50085E-2,-2.7132035E-5,1.296783E-2,-9.080227E-3,2.1125972E-3,2.7887765E-2,1.31894415E-2,3.347585E-2,-8.842277E-3,4.3836005E-2,-4.8545483E-3,-5.392762E-2,1.0760716E-2,4.622698E-2,3.465179E-2,4.5163658E-2,-4.5379337E-2,1.0469063E-1,2.9841593E-2,-5.5007786E-2,-9.040249E-3,7.118674E-2,2.8432375E-2,-5.4611932E-2,1.0704143E-1,-4.875269E-2,1.5049974E-2,1.9523047E-2,8.1270814E-2],"categories":[],"categories_nodes":[],"categories_segments":[],"categories_sizes":[],"default_left":[0,0,0,0,0,0,0,0,0,0,0,0,0,0,0,0,0,0,0,0,0,0,0,0,0,0,0,0,0,0,0,0,0,0,0,0,0,0,0,0,0,0,0,0,0,0,0,0,0,0,0,0,0,0,0,0,0,0,0,0,0,0,0,0,0,0,0,0,0,0,0,0,0,0,0,0,0,0,0,0,0,0,0,0,0,0,0,0,0,0,0,0,0,0,0,0,0,0,0,0,0,0,0,0,0,0,0,0,0,0,0,0,0,0,0,0,0,0,0,0,0],"id":2,"left_children":[1,3,5,7,9,11,13,15,17,19,21,23,25,27,29,31,33,35,37,39,41,43,45,47,49,51,53,55,57,59,61,63,65,67,69,71,73,75,77,79,81,83,85,87,89,-1,91,93,95,97,99,101,103,105,-1,107,109,111,-1,113,115,117,119,-1,-1,-1,-1,-1,-1,-1,-1,-1,-1,-1,-1,-1,-1,-1,-1,-1,-1,-1,-1,-1,-1,-1,-1,-1,-1,-1,-1,-1,-1,-1,-1,-1,-1,-1,-1,-1,-1,-1,-1,-1,-1,-1,-1,-1,-1,-1,-1,-1,-1,-1,-1,-1,-1,-1,-1,-1,-1],"loss_changes":[4.6392954E3,2.461875E2,2.9918823E2,3.2348877E1,4.2273712E1,1.6722763E1,1.9317285E2,2.6479492E1,4.7325134E0,1.1174202E1,2.5028494E1,1.7640038E0,5.3307495E0,4.3642494E1,1.0750464E2,1.930542E0,8.675537E0,3.253991E1,6.926468E0,1.5762405E1,6.3959427E0,2.4982683E1,5.1401157E0,2.1151686E-1,1.167469E0,3.6552825E0,2.3514252E0,3.117812E1,5.6233673E0,3.5134277E1,3.9749786E1,1.1493225E0,1.3236084E0,1.2341988E1,5.3430176E0,1.1560539E1,1.072333E1,1.2599435E1,1.9762115E0,4.9951973E0,1.5819287E1,4.034943E0,9.214561E0,1.1723772E1,1.9623653E1,0E0,3.5942535E0,3.6859497E-1,4.953982E-2,1.3441429E0,1.5712805E0,3.024086E0,2.2871423E0,1.977829E0,0E0,3.4764027E1,2.1719543E1,4.513607E-1,0E0,1.5284576E0,1.6289307E1,7.1495566E0,1.4122818E1,0E0,0E0,0E0,0E0,0E0,0E0,0E0,0E0,0E0,0E0,0E0,0E0,0E0,0E0,0E0,0E0,0E0,0E0,0E0,0E0,0E0,0E0,0E0,0E0,0E0,0E0,0E0,0E0,0E0,0E0,0E0,0E0,0E0,0E0,0E0,0E0,0E0,0E0,0E0,0E0,0E0,0E0,0E0,0E0,0E0,0E0,0E0,0E0,0E0,0E0,0E0,0E0,0E0,0E0,0E0,0E0,0E0,0E0],"parents":[2147483647,0,0,1,1,2,2,3,3,4,4,5,5,6,6,7,7,8,8,9,9,10,10,11,11,12,12,13,13,14,14,15,15,16,16,17,17,18,18,19,19,20,20,21,21,22,22,23,23,24,24,25,25,26,26,27,27,28,28,29,29,30,30,31,31,32,32,33,33,34,34,35,35,36,36,37,37,38,38,39,39,40,40,41,41,42,42,43,43,44,44,46,46,47,47,48,48,49,49,50,50,51,51,52,52,53,53,55,55,56,56,57,57,59,59,60,60,61,61,62,62],"right_children":[2,4,6,8,10,12,14,16,18,20,22,24,26,28,30,32,34,36,38,40,42,44,46,48,50,52,54,56,58,60,62,64,66,68,70,72,74,76,78,80,82,84,86,88,90,-1,92,94,96,98,100,102,104,106,-1,108,110,112,-1,114,116,118,120,-1,-1,-1,-1,-1,-1,-1,-1,-1,-1,-1,-1,-1,-1,-1,-1,-1,-1,-1,-1,-1,-1,-1,-1,-1,-1,-1,-1,-1,-1,-1,-1,-1,-1,-1,-1,-1,-1,-1,-1,-1,-1,-1,-1,-1,-1,-1,-1,-1,-1,-1,-1,-1,-1,-1,-1,-1,-1],"split_conditions":[3.1141222E0,2.4844873E0,9.837804E0,2.2065036E0,2.7359183E0,7.8086762E0,3.5188367E0,2.228071E1,1.758254E1,2.9838839E0,2.3436495E1,4.1708107E0,3.371944E0,2.6452984E1,2.6061314E1,1.0578718E1,2.2497538E1,1.6519333E1,2.2236474E0,2.5315378E0,7.229644E0,1.6126986E1,1.9603573E1,7.7002788E0,7.6566563E0,3.3054812E0,1.5264023E1,2.058129E1,6.233538E0,1.136804E1,4.4460387E0,2.1754918E0,5.4956007E0,3.0712945E0,2.1646435E0,7.2823006E-1,2.2945614E0,2.1988861E1,2.1302794E1,2.6877464E1,1.4634046E1,4.2203345E0,2.0459942E1,1.2867933E1,2.8389983E0,4.577458E-2,2.7071955E1,3.535298E0,6.5496864E0,2.4946325E0,8.824057E0,2.1039448E0,3.340508E0,6.311249E0,-8.283666E-3,1.7486658E1,2.4218983E1,3.207921E1,4.1257884E-2,1.1282161E1,7.303609E-2,2.629281E1,1.469911E0,-7.89322E-2,-1.1354613E-2,-9.134482E-2,-5.297343E-2,-4.2208355E-2,9.717243E-2,-7.18195E-2,-2.8391937E-2,-4.918129E-3,-6.607338E-2,-1.6390575E-3,9.8426975E-2,-7.139011E-2,5.427275E-2,-8.700569E-2,-6.204912E-2,-3.4363884E-2,-6.278772E-2,-6.1413772E-2,4.607246E-2,-5.158133E-2,4.017203E-2,-8.934063E-2,-4.084911E-2,-5.232542E-3,-5.599928E-2,-1.3548031E-2,5.32139E-2,-2.6631847E-2,-5.50085E-2,-2.7132035E-5,1.296783E-2,-9.080227E-3,2.1125972E-3,2.7887765E-2,1.31894415E-2,3.347585E-2,-8.842277E-3,4.3836005E-2,-4.8545483E-3,-5.392762E-2,1.0760716E-2,4.622698E-2,3.465179E-2,4.5163658E-2,-4.5379337E-2,1.0469063E-1,2.9841593E-2,-5.5007786E-2,-9.040249E-3,7.118674E-2,2.8432375E-2,-5.4611932E-2,1.0704143E-1,-4.875269E-2,1.5049974E-2,1.9523047E-2,8.1270814E-2],"split_indices":[3,3,4,3,3,4,3,4,4,0,4,3,3,4,4,4,4,4,3,0,4,4,1,4,4,3,1,1,0,4,3,3,0,0,3,0,3,1,4,1,4,0,1,4,3,0,4,3,0,0,0,0,3,0,0,4,4,1,0,4,0,4,0,0,0,0,0,0,0,0,0,0,0,0,0,0,0,0,0,0,0,0,0,0,0,0,0,0,0,0,0,0,0,0,0,0,0,0,0,0,0,0,0,0,0,0,0,0,0,0,0,0,0,0,0,0,0,0,0,0,0],"split_type":[0,0,0,0,0,0,0,0,0,0,0,0,0,0,0,0,0,0,0,0,0,0,0,0,0,0,0,0,0,0,0,0,0,0,0,0,0,0,0,0,0,0,0,0,0,0,0,0,0,0,0,0,0,0,0,0,0,0,0,0,0,0,0,0,0,0,0,0,0,0,0,0,0,0,0,0,0,0,0,0,0,0,0,0,0,0,0,0,0,0,0,0,0,0,0,0,0,0,0,0,0,0,0,0,0,0,0,0,0,0,0,0,0,0,0,0,0,0,0,0,0],"sum_hessian":[2.609E3,1.38E3,1.229E3,1.058E3,3.22E2,3.76E2,8.53E2,8.63E2,1.95E2,1.47E2,1.75E2,1.35E2,2.41E2,1E2,7.53E2,4.74E2,3.89E2,8.2E1,1.13E2,9.8E1,4.9E1,1.23E2,5.2E1,2.4E1,1.11E2,1.6E1,2.25E2,8.1E1,1.9E1,6.46E2,1.07E2,1.05E2,3.69E2,8E0,3.81E2,7.1E1,1.1E1,6E0,1.07E2,8.4E1,1.4E1,3E0,4.6E1,7.5E1,4.8E1,1E0,5.1E1,2.1E1,3E0,8.5E1,2.6E1,1.2E1,4E0,2.23E2,2E0,4.1E1,4E1,1.8E1,1E0,8E1,5.66E2,4E1,6.7E1,1.04E2,1E0,3.62E2,7E0,7E0,1E0,3.72E2,9E0,9E0,6.2E1,8E0,3E0,3E0,3E0,1.7E1,9E1,6E1,2.4E1,4E0,1E1,1E0,2E0,2.6E1,2E1,6.2E1,1.3E1,1.6E1,3.2E1,2.8E1,2.3E1,1E1,1.1E1,2E0,1E0,2.2E1,6.3E1,2.4E1,2E0,7E0,5E0,2E0,2E0,1.48E2,7.5E1,2.3E1,1.8E1,1.9E1,2.1E1,1.7E1,1E0,7.6E1,4E0,1E0,5.65E2,4E0,3.6E1,1.2E1,5.5E1],"tree_param":{"num_deleted":"0","num_feature":"6","num_nodes":"121","size_leaf_vector":"1"}},{"base_weights":[-2.113966E-2,-4.3575504E-1,9.182732E-1,-7.3020846E-1,-1.7826392E-1,5.653775E-1,1.2654724E0,-2.5931618E-1,-7.82262E-1,-1.363057E-2,-8.706972E-1,6.916938E-1,-8.3329976E-1,6.841298E-1,1.613875E0,-5.3191847E-1,5.9503887E-2,-7.1267956E-1,-1.0248829E0,-1.8699288E-1,2.0116273E-1,-5.130339E-1,-9.486529E-1,4.602391E-1,9.5527315E-1,-9.1238946E-1,4.4416513E-2,4.324397E-1,7.863803E-1,1.6378706E0,-4.738542E-2,1.02570735E-1,-6.0989505E-1,-6.487296E-1,2.2439694E-1,-8.214971E-1,-4.4552386E-1,2.0703945E-1,-1.055815E0,-9.6251595E-1,-1.5931176E-1,-6.5984786E-1,2.4628669E-1,-9.047422E-1,-1.14940114E-1,-6.2171955E-2,-8.70315E-1,5.7882535E-1,-6.359781E-1,1.1684175E0,3.2303128E-1,-5.6716406E-1,-6.0197245E-2,5.9881353E-1,2.4804755E-1,8.390493E-1,2.4086995E-1,1.430895E0,1.8856622E0,-1.3639827E-2,1.7922675E-2,-1.7734187E-2,-4.3644663E-2,2.6186584E-2,-5.6341935E-2,6.6962587E-3,5.5731513E-2,-3.288422E-2,-5.5434264E-2,-3.3657046E-3,-3.5211332E-2,-8.186392E-3,4.2252716E-2,-4.903024E-2,-6.009207E-2,-6.739503E-2,2.1713361E-2,-1.0983049E-2,7.06471E-3,-3.6170322E-2,1.0516214E-2,1.63985E-2,-7.346087E-3,-1.0294968E-2,-5.448522E-2,-5.650835E-2,7.3025185E-3,2.0395895E-2,-4.4720784E-2,2.2040254E-2,7.316705E-2,-6.4544864E-2,3.8235705E-2,9.991189E-2,5.290971E-2,4.1229848E-2,-5.4703164E-4,-4.866188E-2,7.5987475E-3,-1.0443628E-2,3.408669E-2,5.1394994E-3,2.2056459E-2,3.5909873E-2,5.6736052E-2,-5.347612E-2,2.3943072E-2,7.840376E-2,6.025922E-2,1.03890836E-1,7.017781E-2],"categories":[],"categories_nodes":[],"categories_segments":[],"categories_sizes":[],"default_left":[0,0,0,0,0,0,0,0,0,0,0,0,0,0,0,0,0,0,0,0,0,0,0,0,0,0,0,0,0,0,0,0,0,0,0,0,0,0,0,0,0,0,0,0,0,0,0,0,0,0,0,0,0,0,0,0,0,0,0,0,0,0,0,0,0,0,0,0,0,0,0,0,0,0,0,0,0,0,0,0,0,0,0,0,0,0,0,0,0,0,0,0,0,0,0,0,0,0,0,0,0,0,0,0,0,0,0,0,0,0,0],"id":3,"left_children":[1,3,5,7,9,11,13,15,17,19,21,23,25,27,29,31,33,35,37,39,41,43,45,47,49,51,-1,53,55,57,-1,59,61,63,65,67,69,71,73,75,77,79,81,83,85,-1,87,89,91,93,95,97,-1,99,101,103,105,107,109,-1,-1,-1,-1,-1,-1,-1,-1,-1,-1,-1,-1,-1,-1,-1,-1,-1,-1,-1,-1,-1,-1,-1,-1,-1,-1,-1,-1,-1,-1,-1,-1,-1,-1,-1,-1,-1,-1,-1,-1,-1,-1,-1,-1,-1,-1,-1,-1,-1,-1,-1,-1],"loss_changes":[1.03412E3,1.3952872E2,9.889734E1,2.085263E1,1.1216179E2,7.213005E1,8.173535E1,7.5929146E0,1.2319519E1,2.9678318E1,4.7829895E0,2.2254822E1,5.440052E0,3.6489334E0,1.7226196E1,2.3878965E0,4.933667E0,1.7193024E1,6.696594E0,9.31376E0,1.3993901E1,5.5097275E0,2.474121E0,2.6367374E1,2.2935822E1,2.6386929E0,0E0,1.293334E0,2.9296265E0,1.0277405E1,0E0,6.7408496E-1,2.5094433E0,5.0746746E0,2.589116E0,1.9406128E1,1.7270966E1,1.321134E0,6.445923E-1,8.659833E0,7.7773867E0,1.1476741E0,1.093638E1,2.1023026E0,5.199388E0,0E0,4.215637E0,2.1451626E1,1.933397E1,9.68454E0,7.5469193E0,5.112304E0,0E0,1.7497587E0,6.2777376E-1,2.7225647E0,3.9426374E0,2.5069275E0,7.459198E0,0E0,0E0,0E0,0E0,0E0,0E0,0E0,0E0,0E0,0E0,0E0,0E0,0E0,0E0,0E0,0E0,0E0,0E0,0E0,0E0,0E0,0E0,0E0,0E0,0E0,0E0,0E0,0E0,0E0,0E0,0E0,0E0,0E0,0E0,0E0,0E0,0E0,0E0,0E0,0E0,0E0,0E0,0E0,0E0,0E0,0E0,0E0,0E0,0E0,0E0,0E0,0E0],"parents":[2147483647,0,0,1,1,2,2,3,3,4,4,5,5,6,6,7,7,8,8,9,9,10,10,11,11,12,12,13,13,14,14,15,15,16,16,17,17,18,18,19,19,20,20,21,21,22,22,23,23,24,24,25,25,27,27,28,28,29,29,31,31,32,32,33,33,34,34,35,35,36,36,37,37,38,38,39,39,40,40,41,41,42,42,43,43,44,44,46,46,47,47,48,48,49,49,50,50,51,51,53,53,54,54,55,55,56,56,57,57,58,58],"right_children":[2,4,6,8,10,12,14,16,18,20,22,24,26,28,30,32,34,36,38,40,42,44,46,48,50,52,-1,54,56,58,-1,60,62,64,66,68,70,72,74,76,78,80,82,84,86,-1,88,90,92,94,96,98,-1,100,102,104,106,108,110,-1,-1,-1,-1,-1,-1,-1,-1,-1,-1,-1,-1,-1,-1,-1,-1,-1,-1,-1,-1,-1,-1,-1,-1,-1,-1,-1,-1,-1,-1,-1,-1,-1,-1,-1,-1,-1,-1,-1,-1,-1,-1,-1,-1,-1,-1,-1,-1,-1,-1,-1,-1],"split_conditions":[3.907283E0,1.5047885E0,6.311249E0,9.451398E0,2.629281E1,2.7426256E1,1.136804E1,7.8692126E0,2.6499077E1,2.558601E0,1.7289339E0,1.6261717E1,2.9587543E1,7.975648E0,2.840369E1,6.53753E0,7.2882395E0,2.1917715E1,2.1481895E1,5.2635937E0,7.229644E0,1.6221331E0,1.9828248E0,1.6784168E1,2.5496847E1,4.5890894E0,4.4416513E-2,8.947724E0,1.0657336E1,9.512185E0,-4.738542E-2,4.4956467E-1,7.2823006E-1,8.304142E0,1.4099281E0,1.758254E1,2.4363783E1,8.250178E-1,9.969046E-1,2.0780807E0,2.2940304E1,1.0073162E1,2.3195305E1,1.5240438E0,2.6499077E1,-6.2171955E-2,2.6362024E1,1.4259612E1,1.9816168E1,1.4896013E1,4.416448E0,4.416448E0,-6.0197245E-2,6.5496864E0,9.142927E0,9.751931E0,6.8449945E0,2.2617632E1,2.3904327E1,-1.3639827E-2,1.7922675E-2,-1.7734187E-2,-4.3644663E-2,2.6186584E-2,-5.6341935E-2,6.6962587E-3,5.5731513E-2,-3.288422E-2,-5.5434264E-2,-3.3657046E-3,-3.5211332E-2,-8.186392E-3,4.2252716E-2,-4.903024E-2,-6.009207E-2,-6.739503E-2,2.1713361E-2,-1.0983049E-2,7.06471E-3,-3.6170322E-2,1.0516214E-2,1.63985E-2,-7.346087E-3,-1.0294968E-2,-5.448522E-2,-5.650835E-2,7.3025185E-3,2.0395895E-2,-4.4720784E-2,2.2040254E-2,7.316705E-2,-6.4544864E-2,3.8235705E-2,9.991189E-2,5.290971E-2,4.1229848E-2,-5.4703164E-4,-4.866188E-2,7.5987475E-3,-1.0443628E-2,3.408669E-2,5.1394994E-3,2.2056459E-2,3.5909873E-2,5.6736052E-2,-5.347612E-2,2.3943072E-2,7.840376E-2,6.025922E-2,1.03890836E-1,7.017781E-2],"split_indices":[0,0,0,4,4,4,4,1,4,0,0,1,4,4,4,4,4,1,1,1,4,0,0,4,4,0,0,0,4,0,0,0,0,1,0,4,4,0,0,0,1,1,4,0,4,0,4,4,4,4,0,0,0,0,1,4,0,4,4,0,0,0,0,0,0,0,0,0,0,0,0,0,0,0,0,0,0,0,0,0,0,0,0,0,0,0,0,0,0,0,0,0,0,0,0,0,0,0,0,0,0,0,0,0,0,0,0,0,0,0,0],"split_type":[0,0,0,0,0,0,0,0,0,0,0,0,0,0,0,0,0,0,0,0,0,0,0,0,0,0,0,0,0,0,0,0,0,0,0,0,0,0,0,0,0,0,0,0,0,0,0,0,0,0,0,0,0,0,0,0,0,0,0,0,0,0,0,0,0,0,0,0,0,0,0,0,0,0,0,0,0,0,0,0,0,0,0,0,0,0,0,0,0,0,0,0,0,0,0,0,0,0,0,0,0,0,0,0,0,0,0,0,0,0,0],"sum_hessian":[2.653E3,1.841E3,8.12E2,8.58E2,9.83E2,4.04E2,4.08E2,8.6E1,7.72E2,7.95E2,1.88E2,3.71E2,3.3E1,1.54E2,2.54E2,4.6E1,4E1,6.03E2,1.69E2,4.4E2,3.55E2,3.5E1,1.53E2,1.99E2,1.72E2,3.2E1,1E0,4.6E1,1.08E2,2.52E2,2E0,5E0,4.1E1,7E0,3.3E1,4.27E2,1.76E2,4E0,1.65E2,1.4E1,4.26E2,1.7E1,3.38E2,1.7E1,1.8E1,2.9E1,1.24E2,1.8E2,1.9E1,1.28E2,4.4E1,1.6E1,1.6E1,2.3E1,2.3E1,9.8E1,1E1,1.41E2,1.11E2,2E0,3E0,2.2E1,1.9E1,2E0,5E0,3.1E1,2E0,2.74E2,1.53E2,7.2E1,1.04E2,3E0,1E0,1.14E2,5.1E1,1.1E1,3E0,3.55E2,7.1E1,1.6E1,1E0,2.8E2,5.8E1,4E0,1.3E1,3E0,1.5E1,2E0,1.22E2,1.57E2,2.3E1,1.3E1,6E0,1.3E1,1.15E2,1.7E1,2.7E1,1E1,6E0,2E0,2.1E1,1.4E1,9E0,7.2E1,2.6E1,1E0,9E0,8.4E1,5.7E1,7.7E1,3.4E1],"tree_param":{"num_deleted":"0","num_feature":"6","num_nodes":"111","size_leaf_vector":"1"}},{"base_weights":[3.260134E-2,-1.2507023E0,1.2420081E0,-1.4386607E0,-6.84093E-1,2.69813E-1,1.4374145E0,-1.5833234E0,-1.2697438E0,-8.4331536E-1,-2.3396873E-1,9.57827E-2,6.694512E-1,8.3101517E-1,1.7643313E0,-1.6006726E0,1.4657474E-1,-1.3282197E0,-1.0738962E0,-1.2917979E0,-7.4797213E-1,5.9205946E-3,-9.2119366E-1,6.6984797E-1,1.3675694E-2,9.055266E-1,-1.004999E0,6.8108594E-1,1.0681967E0,1.8931772E0,1.3272457E0,-1.6490271E0,-1.2698275E0,-5.963037E-2,9.416463E-2,-6.948179E-2,-1.0926875E0,1.697629E-1,-1.1233616E0,-7.9521656E-1,-1.4308177E0,2.8333506E-1,-8.926814E-1,-8.7400556E-1,2.931226E-1,5.3227115E-2,-1.066445E0,8.9248985E-1,-4.446431E-2,8.5555814E-2,-2.30581E-2,2.4374653E-1,1.0796807E0,-1.0921428E0,-7.6962174E-3,4.3656218E-1,7.156102E-1,1.2847949E0,9.129717E-1,1.481394E0,1.969429E0,3.4154865E-1,1.502847E0,-6.639627E-2,-8.380721E-2,2.4980782E-2,-6.789134E-2,-3.5731692E-2,-5.6670617E-2,6.573228E-2,-2.2255957E-2,-4.3649614E-2,-6.5724544E-2,2.1760374E-2,-4.8088986E-2,-8.0963686E-2,-2.9014021E-2,-6.577379E-4,6.1220597E-2,-8.014125E-2,-3.920123E-2,-6.0189098E-2,4.781431E-2,-2.9502928E-3,3.4687314E-2,-8.730395E-2,-3.0095404E-2,1.7916562E-2,9.505426E-2,-1.2153069E-2,1.0511281E-2,7.0037946E-2,-2.7733902E-2,8.6086355E-2,2.797929E-2,-9.192842E-3,-5.9781637E-2,-4.7948244E-3,2.9180238E-2,2.5880843E-2,3.731608E-2,6.588985E-2,3.2580674E-2,-6.325625E-2,4.7540464E-2,7.4796446E-2,2.757744E-2,-5.242453E-2,9.8903134E-2,-2.2015205E-2,3.784682E-2,2.1482212E-2,8.1682034E-2],"categories":[],"categories_nodes":[],"categories_segments":[],"categories_sizes":[],"default_left":[0,0,0,0,0,0,0,0,0,0,0,0,0,0,0,0,0,0,0,0,0,0,0,0,0,0,0,0,0,0,0,0,0,0,0,0,0,0,0,0,0,0,0,0,0,0,0,0,0,0,0,0,0,0,0,0,0,0,0,0,0,0,0,0,0,0,0,0,0,0,0,0,0,0,0,0,0,0,0,0,0,0,0,0,0,0,0,0,0,0,0,0,0,0,0,0,0,0,0,0,0,0,0,0,0,0,0,0,0,0,0,0,0],"id":4,"left_children":[1,3,5,7,9,11,13,15,17,19,21,23,25,27,29,31,33,35,37,39,41,43,45,47,49,51,53,55,57,59,61,63,65,-1,-1,-1,67,69,71,73,75,77,79,81,83,-1,85,87,-1,-1,89,91,93,95,-1,97,99,101,103,105,107,109,111,-1,-1,-1,-1,-1,-1,-1,-1,-1,-1,-1,-1,-1,-1,-1,-1,-1,-1,-1,-1,-1,-1,-1,-1,-1,-1,-1,-1,-1,-1,-1,-1,-1,-1,-1,-1,-1,-1,-1,-1,-1,-1,-1,-1,-1,-1,-1,-1,-1,-1],"loss_changes":[4.08496E3,1.3501526E2,2.5702588E2,2.1399292E1,2.2737045E1,1.5793085E1,2.2215088E2,1.5600952E1,3.69281E0,9.125076E0,1.4018377E1,7.5324035E0,2.8185518E1,1.3389954E1,3.871118E1,6.016968E0,1.620072E1,3.3998413E0,6.834656E0,1.6235733E0,2.965316E1,1.643005E1,7.480755E0,7.736251E0,8.831289E0,6.767185E0,4.9938583E-1,1.7643204E0,3.9374847E0,1.4760254E1,2.8911926E1,1.5968018E0,1.1422348E1,0E0,0E0,0E0,3.4474945E-1,4.1050124E0,3.8291779E0,2.6729503E0,3.8690338E0,6.9915996E0,1.2092361E1,1.0808553E1,6.9534135E0,0E0,5.5790367E0,9.01628E0,0E0,0E0,7.1850195E0,1.37099905E1,1.5064945E1,5.3216267E-1,0E0,2.6396713E0,9.1495514E-1,4.1597748E-1,8.784973E0,4.1830444E-1,1.437207E1,9.102127E0,1.9511108E1,0E0,0E0,0E0,0E0,0E0,0E0,0E0,0E0,0E0,0E0,0E0,0E0,0E0,0E0,0E0,0E0,0E0,0E0,0E0,0E0,0E0,0E0,0E0,0E0,0E0,0E0,0E0,0E0,0E0,0E0,0E0,0E0,0E0,0E0,0E0,0E0,0E0,0E0,0E0,0E0,0E0,0E0,0E0,0E0,0E0,0E0,0E0,0E0,0E0,0E0],"parents":[2147483647,0,0,1,1,2,2,3,3,4,4,5,5,6,6,7,7,8,8,9,9,10,10,11,11,12,12,13,13,14,14,15,15,16,16,17,17,18,18,19,19,20,20,21,21,22,22,23,23,24,24,25,25,26,26,27,27,28,28,29,29,30,30,31,31,32,32,36,36,37,37,38,38,39,39,40,40,41,41,42,42,43,43,44,44,46,46,47,47,50,50,51,51,52,52,53,53,55,55,56,56,57,57,58,58,59,59,60,60,61,61,62,62],"right_children":[2,4,6,8,10,12,14,16,18,20,22,24,26,28,30,32,34,36,38,40,42,44,46,48,50,52,54,56,58,60,62,64,66,-1,-1,-1,68,70,72,74,76,78,80,82,84,-1,86,88,-1,-1,90,92,94,96,-1,98,100,102,104,106,108,110,112,-1,-1,-1,-1,-1,-1,-1,-1,-1,-1,-1,-1,-1,-1,-1,-1,-1,-1,-1,-1,-1,-1,-1,-1,-1,-1,-1,-1,-1,-1,-1,-1,-1,-1,-1,-1,-1,-1,-1,-1,-1,-1,-1,-1,-1,-1,-1,-1,-1,-1],"split_conditions":[2.8913774E0,2.355064E0,3.5188367E0,2.1627142E1,2.7359183E0,3.3054812E0,1.1585844E1,5.978891E0,2.0024319E0,1.0973392E1,2.381163E1,2.9279432E0,2.8287521E1,9.0166445E0,2.5697374E1,2.1754918E0,1.0472451E1,2.9130148E1,2.008566E0,7.06633E0,1.3146322E1,9.4397955E0,5.0877553E-1,2.2091188E1,2.5186732E-1,1.4436548E0,3.207921E1,4.5276766E0,3.2639332E0,1.3464897E1,4.0131435E0,6.855073E0,2.345236E-1,-5.963037E-2,9.416463E-2,-6.948179E-2,2.846689E-1,2.1725985E1,1.7163101E0,5.0877553E-1,2.6801293E0,1.2503142E1,1.4771836E1,4.889512E0,2.558601E0,5.3227115E-2,2.635202E1,1.6143387E1,-4.446431E-2,8.5555814E-2,1.8698757E1,9.479708E-1,3.0382957E0,1.1226267E0,-7.6962174E-3,4.642788E0,4.1708107E0,1.1454717E1,3.4265826E0,2.0134892E1,7.303609E-2,2.7601398E1,9.0960777E-1,-6.639627E-2,-8.380721E-2,2.4980782E-2,-6.789134E-2,-3.5731692E-2,-5.6670617E-2,6.573228E-2,-2.2255957E-2,-4.3649614E-2,-6.5724544E-2,2.1760374E-2,-4.8088986E-2,-8.0963686E-2,-2.9014021E-2,-6.577379E-4,6.1220597E-2,-8.014125E-2,-3.920123E-2,-6.0189098E-2,4.781431E-2,-2.9502928E-3,3.4687314E-2,-8.730395E-2,-3.0095404E-2,1.7916562E-2,9.505426E-2,-1.2153069E-2,1.0511281E-2,7.0037946E-2,-2.7733902E-2,8.6086355E-2,2.797929E-2,-9.192842E-3,-5.9781637E-2,-4.7948244E-3,2.9180238E-2,2.5880843E-2,3.731608E-2,6.588985E-2,3.2580674E-2,-6.325625E-2,4.7540464E-2,7.4796446E-2,2.757744E-2,-5.242453E-2,9.8903134E-2,-2.2015205E-2,3.784682E-2,2.1482212E-2,8.1682034E-2],"split_indices":[3,3,3,1,3,3,1,0,3,1,1,3,1,1,1,3,1,1,3,1,1,1,0,1,0,0,1,1,0,1,3,1,0,0,0,0,0,1,0,0,3,1,1,0,0,0,1,1,0,0,1,0,0,0,0,3,3,1,0,0,0,1,0,0,0,0,0,0,0,0,0,0,0,0,0,0,0,0,0,0,0,0,0,0,0,0,0,0,0,0,0,0,0,0,0,0,0,0,0,0,0,0,0,0,0,0,0,0,0,0,0,0,0],"split_type":[0,0,0,0,0,0,0,0,0,0,0,0,0,0,0,0,0,0,0,0,0,0,0,0,0,0,0,0,0,0,0,0,0,0,0,0,0,0,0,0,0,0,0,0,0,0,0,0,0,0,0,0,0,0,0,0,0,0,0,0,0,0,0,0,0,0,0,0,0,0,0,0,0,0,0,0,0,0,0,0,0,0,0,0,0,0,0,0,0,0,0,0,0,0,0,0,0,0,0,0,0,0,0,0,0,0,0,0,0,0,0,0,0],"sum_hessian":[2.63E3,1.276E3,1.354E3,9.57E2,3.19E2,2.27E2,1.127E3,5.11E2,4.46E2,2.35E2,8.4E1,1.59E2,6.8E1,3.96E2,7.31E2,5.06E2,5E0,3.39E2,1.07E2,3.9E1,1.96E2,6.3E1,2.1E1,1.9E1,1.4E2,6E1,8E0,2.45E2,1.51E2,5.62E2,1.69E2,4.38E2,6.8E1,3E0,2E0,2.65E2,7.4E1,4E0,1.03E2,1E1,2.9E1,2.4E1,1.72E2,1.5E1,4.8E1,1E0,2E1,1.7E1,2E0,2E0,1.38E2,1.3E1,4.7E1,7E0,1E0,3.2E1,2.13E2,6E1,9.1E1,9.1E1,4.71E2,2.6E1,1.43E2,3.8E1,4E2,3E0,6.5E1,9E0,6.5E1,1E0,3E0,4.7E1,5.6E1,1E0,9E0,2.3E1,6E0,1.9E1,5E0,2.1E1,1.51E2,1.3E1,2E0,2.6E1,2.2E1,7E0,1.3E1,1.2E1,5E0,7.1E1,6.7E1,5E0,8E0,2E1,2.7E1,1E0,6E0,7E0,2.5E1,3.1E1,1.82E2,5.6E1,4E0,1E0,9E1,8.9E1,2E0,1E0,4.7E2,9E0,1.7E1,1.6E1,1.27E2],"tree_param":{"num_deleted":"0","num_feature":"6","num_nodes":"113","size_leaf_vector":"1"}},{"base_weights":[4.6483777E-2,-1.1192465E0,1.2671313E0,-1.3807433E0,-5.338174E-1,5.830009E-1,1.545658E0,-1.5175424E0,-1.1976373E0,-7.757356E-1,-1.2362489E-1,3.826668E-1,7.0992863E-1,5.219857E-1,1.7243295E0,-1.5583059E0,-1.0637422E0,3.445197E-1,-1.2177756E0,-6.4012516E-1,-9.749922E-1,6.4404525E-2,-8.8995105E-1,3.1614646E-1,5.106131E-1,1.5878141E-1,7.561934E-1,8.502098E-1,-8.588691E-1,1.8094529E0,1.0662352E0,-1.3672427E0,-1.6067439E0,-1.1817014E0,4.9974525E-1,-5.173864E-2,1.0343682E-1,-1.2548325E0,-9.1275555E-1,-8.3252203E-1,-2.8741816E-1,-7.6473475E-2,-8.9383566E-1,9.558775E-2,4.293178E-3,-5.835909E-1,-6.6319436E-2,2.6971287E-1,4.4465867E-1,1.5081471E-1,5.7713926E-1,7.0856696E-1,-8.81825E-2,8.469984E-1,6.843411E-1,4.3743488E-1,1.28546E0,-9.996808E-1,-3.137383E-1,1.4112527E0,1.8873311E0,6.585342E-1,1.5797831E0,-7.224383E-2,-4.8252743E-2,-8.0788605E-2,-5.265248E-2,-6.351232E-2,2.2591306E-2,6.964524E-2,-5.4493334E-2,-7.341113E-2,-5.750033E-2,1.4077007E-2,-5.1520016E-2,-3.0612579E-2,-6.867397E-2,2.0655103E-2,-3.480878E-2,3.5810392E-2,-4.773922E-2,-8.500895E-3,2.553753E-2,1.1441586E-2,-5.1932584E-2,2.0664228E-2,9.980518E-3,3.8008478E-2,1.6388625E-2,1.2448115E-2,-6.4233937E-3,3.243563E-2,1.0040514E-2,8.621151E-3,3.906556E-2,9.143174E-3,-2.400272E-2,5.972252E-2,3.9648972E-2,1.8353418E-2,3.641766E-2,-3.952755E-2,4.185214E-2,8.302208E-2,3.539285E-2,-5.6223165E-2,-2.50157E-2,5.512138E-2,-5.5034507E-2,7.702687E-2,5.9296187E-2,6.6093266E-2,9.72899E-2,5.1751852E-2,1.7764053E-3,3.2517247E-2,8.469894E-2],"categories":[],"categories_nodes":[],"categories_segments":[],"categories_sizes":[],"default_left":[0,0,0,0,0,0,0,0,0,0,0,0,0,0,0,0,0,0,0,0,0,0,0,0,0,0,0,0,0,0,0,0,0,0,0,0,0,0,0,0,0,0,0,0,0,0,0,0,0,0,0,0,0,0,0,0,0,0,0,0,0,0,0,0,0,0,0,0,0,0,0,0,0,0,0,0,0,0,0,0,0,0,0,0,0,0,0,0,0,0,0,0,0,0,0,0,0,0,0,0,0,0,0,0,0,0,0,0,0,0,0,0,0,0,0,0,0],"id":5,"left_children":[1,3,5,7,9,11,13,15,17,19,21,23,25,27,29,31,33,35,37,39,41,43,45,47,49,51,53,55,57,59,61,63,65,67,69,-1,-1,71,73,75,77,-1,79,-1,81,83,-1,85,87,89,91,93,95,97,99,101,103,105,107,109,111,113,115,-1,-1,-1,-1,-1,-1,-1,-1,-1,-1,-1,-1,-1,-1,-1,-1,-1,-1,-1,-1,-1,-1,-1,-1,-1,-1,-1,-1,-1,-1,-1,-1,-1,-1,-1,-1,-1,-1,-1,-1,-1,-1,-1,-1,-1,-1,-1,-1,-1,-1,-1,-1,-1,-1],"loss_changes":[3.769379E3,2.0669678E2,2.4566846E2,2.1628052E1,4.1581978E1,9.289246E0,1.6718604E2,8.183594E0,1.29973755E1,6.509506E0,2.2679737E1,1.0982056E0,5.7191315E0,6.3275925E1,4.187793E1,2.3010254E0,9.258659E0,1.6409868E1,3.3758545E0,1.06182785E1,3.3578568E0,1.4094727E1,3.3708534E0,4.7679806E-1,1.085824E0,2.6422503E0,7.9704285E-1,1.9559647E1,1.7589054E0,1.8765137E1,1.8222054E1,1.8840637E0,2.0806885E-1,6.9381065E0,7.1971884E0,0E0,0E0,6.2301025E0,6.8937187E0,1.1432243E1,1.6895481E1,0E0,9.908058E0,0E0,1.1033698E1,7.6317096E0,0E0,6.8242407E-1,6.7280865E-1,2.7868187E-1,9.740715E-1,9.929204E-2,1.5747986E0,7.232666E-1,1.4501991E0,2.9613781E1,1.0520531E1,7.459736E-1,9.014612E0,1.5814362E0,1.6437988E1,1.2395103E1,3.143837E0,0E0,0E0,0E0,0E0,0E0,0E0,0E0,0E0,0E0,0E0,0E0,0E0,0E0,0E0,0E0,0E0,0E0,0E0,0E0,0E0,0E0,0E0,0E0,0E0,0E0,0E0,0E0,0E0,0E0,0E0,0E0,0E0,0E0,0E0,0E0,0E0,0E0,0E0,0E0,0E0,0E0,0E0,0E0,0E0,0E0,0E0,0E0,0E0,0E0,0E0,0E0,0E0,0E0,0E0],"parents":[2147483647,0,0,1,1,2,2,3,3,4,4,5,5,6,6,7,7,8,8,9,9,10,10,11,11,12,12,13,13,14,14,15,15,16,16,17,17,18,18,19,19,20,20,21,21,22,22,23,23,24,24,25,25,26,26,27,27,28,28,29,29,30,30,31,31,32,32,33,33,34,34,37,37,38,38,39,39,40,40,42,42,44,44,45,45,47,47,48,48,49,49,50,50,51,51,52,52,53,53,54,54,55,55,56,56,57,57,58,58,59,59,60,60,61,61,62,62],"right_children":[2,4,6,8,10,12,14,16,18,20,22,24,26,28,30,32,34,36,38,40,42,44,46,48,50,52,54,56,58,60,62,64,66,68,70,-1,-1,72,74,76,78,-1,80,-1,82,84,-1,86,88,90,92,94,96,98,100,102,104,106,108,110,112,114,116,-1,-1,-1,-1,-1,-1,-1,-1,-1,-1,-1,-1,-1,-1,-1,-1,-1,-1,-1,-1,-1,-1,-1,-1,-1,-1,-1,-1,-1,-1,-1,-1,-1,-1,-1,-1,-1,-1,-1,-1,-1,-1,-1,-1,-1,-1,-1,-1,-1,-1,-1,-1,-1,-1],"split_conditions":[3.1141222E0,2.355064E0,9.837804E0,2.228071E1,2.7709832E0,7.975648E0,3.619718E0,2.234966E0,1.210931E0,1.2322068E0,2.5939352E1,7.6566563E0,3.3957136E0,1.4273216E0,2.6405258E1,6.470353E-1,4.5890894E0,8.8487643E-1,2.1646435E0,1.4896013E1,2.3904327E1,2.070203E-1,2.971189E0,7.4162183E0,1.9364194E0,5.7960325E-1,3.4071367E0,3.3957136E0,3.907283E0,1.237328E1,5.112339E0,9.9570465E0,5.4956007E0,2.1379236E1,6.113963E0,-5.173864E-2,1.0343682E-1,2.5663754E1,2.333194E1,1.237328E1,9.6930027E-1,-7.6473475E-2,2.4218983E1,9.558775E-2,4.3267956E0,2.7071955E1,-6.6319436E-2,2.1039448E0,8.481341E0,1.4099281E0,8.824057E0,2.766742E-1,3.3054812E0,3.5964944E0,4.106067E0,1.4259612E1,2.2054617E1,2.840369E1,3.371944E0,4.889512E0,3.8517084E0,2.7744009E1,2.6623142E1,-7.224383E-2,-4.8252743E-2,-8.0788605E-2,-5.265248E-2,-6.351232E-2,2.2591306E-2,6.964524E-2,-5.4493334E-2,-7.341113E-2,-5.750033E-2,1.4077007E-2,-5.1520016E-2,-3.0612579E-2,-6.867397E-2,2.0655103E-2,-3.480878E-2,3.5810392E-2,-4.773922E-2,-8.500895E-3,2.553753E-2,1.1441586E-2,-5.1932584E-2,2.0664228E-2,9.980518E-3,3.8008478E-2,1.6388625E-2,1.2448115E-2,-6.4233937E-3,3.243563E-2,1.0040514E-2,8.621151E-3,3.906556E-2,9.143174E-3,-2.400272E-2,5.972252E-2,3.9648972E-2,1.8353418E-2,3.641766E-2,-3.952755E-2,4.185214E-2,8.302208E-2,3.539285E-2,-5.6223165E-2,-2.50157E-2,5.512138E-2,-5.5034507E-2,7.702687E-2,5.9296187E-2,6.6093266E-2,9.72899E-2,5.1751852E-2,1.7764053E-3,3.2517247E-2,8.469894E-2],"split_indices":[3,3,4,4,3,4,3,3,5,5,4,4,3,5,4,5,0,0,3,4,4,0,3,0,0,0,0,3,0,4,3,4,0,4,0,0,0,4,4,4,5,0,4,0,0,4,0,0,0,0,0,0,3,3,3,4,4,4,3,0,3,4,4,0,0,0,0,0,0,0,0,0,0,0,0,0,0,0,0,0,0,0,0,0,0,0,0,0,0,0,0,0,0,0,0,0,0,0,0,0,0,0,0,0,0,0,0,0,0,0,0,0,0,0,0,0,0],"split_type":[0,0,0,0,0,0,0,0,0,0,0,0,0,0,0,0,0,0,0,0,0,0,0,0,0,0,0,0,0,0,0,0,0,0,0,0,0,0,0,0,0,0,0,0,0,0,0,0,0,0,0,0,0,0,0,0,0,0,0,0,0,0,0,0,0,0,0,0,0,0,0,0,0,0,0,0,0,0,0,0,0,0,0,0,0,0,0,0,0,0,0,0,0,0,0,0,0,0,0,0,0,0,0,0,0,0,0,0,0,0,0,0,0,0,0,0,0],"sum_hessian":[2.647E3,1.354E3,1.293E3,9.35E2,4.19E2,3.75E2,9.18E2,5.31E2,4.04E2,2.63E2,1.56E2,1.47E2,2.28E2,1.37E2,7.81E2,4.85E2,4.6E1,5E0,3.99E2,1.59E2,1.04E2,1.26E2,3E1,9.9E1,4.8E1,1.8E1,2.1E2,1.11E2,2.6E1,6.9E2,9.1E1,1.04E2,3.81E2,4.3E1,3E0,3E0,2E0,3.53E2,4.6E1,1.02E2,5.7E1,1.1E1,9.3E1,3E0,1.23E2,1.9E1,1.1E1,7.5E1,2.4E1,8E0,4E1,5E0,1.3E1,8.8E1,1.22E2,5.8E1,5.3E1,2E1,6E0,1.16E2,5.74E2,5.2E1,3.9E1,8.5E1,1.9E1,3.73E2,8E0,4.1E1,2E0,2E0,1E0,1.12E2,2.41E2,4E0,4.2E1,7.4E1,2.8E1,2.1E1,3.6E1,3E0,9E1,9.2E1,3.1E1,7E0,1.2E1,2.3E1,5.2E1,5E0,1.9E1,6E0,2E0,3.3E1,7E0,1E0,4E0,8E0,5E0,9E0,7.9E1,1.6E1,1.06E2,1.4E1,4.4E1,3.1E1,2.2E1,1.5E1,5E0,2E0,4E0,7E1,4.6E1,5.6E1,5.18E2,3.2E1,2E1,5E0,3.4E1],"tree_param":{"num_deleted":"0","num_feature":"6","num_nodes":"117","size_leaf_vector":"1"}},{"base_weights":[1.6093563E-2,-1.1765516E0,1.114045E0,-1.3690041E0,-7.543585E-1,2.6654884E-1,1.2969702E0,-1.4971657E0,-1.1167154E0,-8.4699667E-1,-3.9798465E-1,3.7407416E-1,-8.403702E-1,5.454571E-1,1.598765E0,-1.2849772E0,-1.5399386E0,-1.1357328E0,-6.1535907E-1,-6.9873637E-1,-1.0919266E0,9.840203E-1,-4.7938517E-1,2.1835767E-1,7.516213E-1,-9.0971553E-1,-1.5044364E-2,3.050591E-1,6.7565095E-1,1.7306194E0,8.3167374E-1,-1.3118182E0,3.8050015E-2,-1.5423576E0,-1.0075289E-2,-6.189691E-2,-1.0202096E0,1.0541359E-1,-5.0900884E-2,-8.4592766E-1,1.5863855E-1,-7.128801E-2,-9.904452E-1,-5.177461E-2,8.7388575E-2,-1.308324E0,-2.176235E-1,9.643437E-1,1.1700491E-1,1.2845457E0,1.6190101E-1,-5.559313E-1,-9.963576E-1,4.640542E-1,2.5161055E-1,6.85959E-1,-1.3212745E-2,1.2313039E0,1.8157203E0,2.6322222E-1,1.169235E0,-4.3563046E-2,-6.782399E-2,3.566417E-2,-3.281042E-2,-7.316562E-2,-8.089029E-2,-1.619978E-2,-5.1659245E-2,-4.8445936E-2,-2.7409969E-2,8.876289E-2,-1.178478E-2,2.1830764E-2,-5.1330358E-2,-1.9694295E-2,-7.275816E-2,1.6759824E-3,-4.166956E-2,-5.4200448E-2,5.6918193E-2,-6.747941E-2,1.1319767E-2,7.256731E-2,-4.6141997E-2,-1.761635E-2,6.642177E-2,-1.0252532E-2,-3.4005452E-2,-1.1848742E-2,-5.1827144E-2,1.177245E-2,3.2324106E-2,-4.29554E-3,1.4073553E-2,1.6742162E-2,3.510005E-2,1.07421605E-2,6.298246E-2,9.353303E-2,6.99526E-2,2.9741129E-2,-1.4282315E-2,-2.629786E-3,6.579551E-2],"categories":[],"categories_nodes":[],"categories_segments":[],"categories_sizes":[],"default_left":[0,0,0,0,0,0,0,0,0,0,0,0,0,0,0,0,0,0,0,0,0,0,0,0,0,0,0,0,0,0,0,0,0,0,0,0,0,0,0,0,0,0,0,0,0,0,0,0,0,0,0,0,0,0,0,0,0,0,0,0,0,0,0,0,0,0,0,0,0,0,0,0,0,0,0,0,0,0,0,0,0,0,0,0,0,0,0,0,0,0,0,0,0,0,0,0,0,0,0,0,0,0,0,0,0],"id":6,"left_children":[1,3,5,7,9,11,13,15,17,19,21,23,25,27,29,31,33,35,37,39,41,43,45,47,49,51,-1,53,55,57,59,61,63,65,-1,-1,67,-1,-1,69,71,-1,73,-1,-1,75,77,79,81,83,85,87,89,91,93,95,-1,97,99,101,103,-1,-1,-1,-1,-1,-1,-1,-1,-1,-1,-1,-1,-1,-1,-1,-1,-1,-1,-1,-1,-1,-1,-1,-1,-1,-1,-1,-1,-1,-1,-1,-1,-1,-1,-1,-1,-1,-1,-1,-1,-1,-1,-1,-1],"loss_changes":[3.4530645E3,1.0166992E2,2.125083E2,2.6361328E1,1.2802399E1,2.9474703E1,2.5518799E2,3.2126465E0,2.1233215E0,1.0675766E1,9.921378E0,1.30049095E1,5.493107E-1,9.965836E0,7.998218E1,3.672104E0,1.2139893E0,2.09021E0,1.640327E1,2.5247612E1,2.5515594E0,9.521829E0,1.707403E1,1.1984405E1,2.0219994E1,2.8494835E-2,0E0,8.690138E-1,2.2158813E0,2.6913818E1,2.2718697E1,7.857361E-1,1.874422E0,4.3579102E-1,0E0,0E0,9.2092896E-1,0E0,0E0,5.6938934E0,1.9543066E1,0E0,5.247528E0,0E0,0E0,1.9780617E0,9.615977E0,8.006634E0,2.3086777E1,1.385791E1,1.9663712E1,1.2197256E-1,1.8158817E-1,1.0154972E0,9.211726E-1,9.365158E-1,0E0,2.6970062E0,1.0751831E1,8.542139E0,1.3510132E1,0E0,0E0,0E0,0E0,0E0,0E0,0E0,0E0,0E0,0E0,0E0,0E0,0E0,0E0,0E0,0E0,0E0,0E0,0E0,0E0,0E0,0E0,0E0,0E0,0E0,0E0,0E0,0E0,0E0,0E0,0E0,0E0,0E0,0E0,0E0,0E0,0E0,0E0,0E0,0E0,0E0,0E0,0E0,0E0],"parents":[2147483647,0,0,1,1,2,2,3,3,4,4,5,5,6,6,7,7,8,8,9,9,10,10,11,11,12,12,13,13,14,14,15,15,16,16,17,17,18,18,19,19,20,20,21,21,22,22,23,23,24,24,25,25,27,27,28,28,29,29,30,30,31,31,32,32,33,33,36,36,39,39,40,40,42,42,45,45,46,46,47,47,48,48,49,49,50,50,51,51,52,52,53,53,54,54,55,55,57,57,58,58,59,59,60,60],"right_children":[2,4,6,8,10,12,14,16,18,20,22,24,26,28,30,32,34,36,38,40,42,44,46,48,50,52,-1,54,56,58,60,62,64,66,-1,-1,68,-1,-1,70,72,-1,74,-1,-1,76,78,80,82,84,86,88,90,92,94,96,-1,98,100,102,104,-1,-1,-1,-1,-1,-1,-1,-1,-1,-1,-1,-1,-1,-1,-1,-1,-1,-1,-1,-1,-1,-1,-1,-1,-1,-1,-1,-1,-1,-1,-1,-1,-1,-1,-1,-1,-1,-1,-1,-1,-1,-1,-1,-1],"split_conditions":[2.8389983E0,2.2065036E0,3.5188367E0,2.4967878E1,2.7007067E0,2.7119081E1,9.751931E0,1.0462178E1,2.1646435E0,2.3436495E1,5.0877553E-1,3.340508E0,3.0246904E1,7.8086762E0,2.611768E1,1.0380008E1,2.89299E1,2.726082E1,2.5042812E1,2.073863E1,2.5133394E1,1.6143387E1,1.8801104E0,7.0504165E-1,3.0382957E0,2.971189E0,-1.5044364E-2,5.039878E0,1.5264023E1,1.172313E1,4.4460387E0,7.229644E0,1.1226267E0,1.2581757E0,-1.0075289E-2,-6.189691E-2,1.1030021E-1,1.0541359E-1,-5.0900884E-2,1.6186218E1,2.118556E1,-7.128801E-2,2.5213303E1,-5.177461E-2,8.7388575E-2,1.200463E1,4.7402396E0,2.8913774E0,9.969046E-1,2.5939352E1,2.276086E1,1.2098426E0,2.5800442E1,4.799718E0,5.5002213E0,4.5276766E0,-1.3212745E-2,3.5964944E0,2.5042812E1,2.7593954E1,9.0960777E-1,-4.3563046E-2,-6.782399E-2,3.566417E-2,-3.281042E-2,-7.316562E-2,-8.089029E-2,-1.619978E-2,-5.1659245E-2,-4.8445936E-2,-2.7409969E-2,8.876289E-2,-1.178478E-2,2.1830764E-2,-5.1330358E-2,-1.9694295E-2,-7.275816E-2,1.6759824E-3,-4.166956E-2,-5.4200448E-2,5.6918193E-2,-6.747941E-2,1.1319767E-2,7.256731E-2,-4.6141997E-2,-1.761635E-2,6.642177E-2,-1.0252532E-2,-3.4005452E-2,-1.1848742E-2,-5.1827144E-2,1.177245E-2,3.2324106E-2,-4.29554E-3,1.4073553E-2,1.6742162E-2,3.510005E-2,1.07421605E-2,6.298246E-2,9.353303E-2,6.99526E-2,2.9741129E-2,-1.4282315E-2,-2.629786E-3,6.579551E-2],"split_indices":[3,3,3,4,3,4,4,4,3,4,0,3,1,4,4,4,1,4,4,1,4,1,0,0,0,3,0,1,1,4,3,4,0,0,0,0,0,0,0,4,1,0,4,0,0,1,0,3,0,4,1,0,1,0,1,1,0,3,4,4,0,0,0,0,0,0,0,0,0,0,0,0,0,0,0,0,0,0,0,0,0,0,0,0,0,0,0,0,0,0,0,0,0,0,0,0,0,0,0,0,0,0,0,0,0],"split_type":[0,0,0,0,0,0,0,0,0,0,0,0,0,0,0,0,0,0,0,0,0,0,0,0,0,0,0,0,0,0,0,0,0,0,0,0,0,0,0,0,0,0,0,0,0,0,0,0,0,0,0,0,0,0,0,0,0,0,0,0,0,0,0,0,0,0,0,0,0,0,0,0,0,0,0,0,0,0,0,0,0,0,0,0,0,0,0,0,0,0,0,0,0,0,0,0,0,0,0,0,0,0,0,0,0],"sum_hessian":[2.635E3,1.263E3,1.372E3,8.66E2,3.97E2,2.44E2,1.128E3,5.71E2,2.95E2,3.14E2,8.3E1,2.23E2,2.1E1,3.24E2,8.04E2,1.01E2,4.7E2,2.83E2,1.2E1,1.98E2,1.16E2,4E0,7.9E1,1.59E2,6.4E1,1.8E1,3E0,1.15E2,2.09E2,6.85E2,1.19E2,9.9E1,2E0,4.69E2,1E0,1.45E2,1.38E2,1E0,1.1E1,1.69E2,2.9E1,2.4E1,9.2E1,1E0,3E0,1.8E1,6.1E1,1.8E1,1.41E2,3.3E1,3.1E1,5E0,1.3E1,2.7E1,8.8E1,2.07E2,2E0,1.02E2,5.83E2,4.5E1,7.4E1,1.1E1,8.8E1,1E0,1E0,2.39E2,2.3E2,3E0,1.35E2,1.18E2,5.1E1,5E0,2.4E1,2E0,9E1,3E0,1.5E1,4.4E1,1.7E1,1E0,1.7E1,9E0,1.32E2,3.1E1,2E0,2.2E1,9E0,2E0,3E0,1E0,1.2E1,1.3E1,1.4E1,7E0,8.1E1,1E1,1.97E2,3E0,9.9E1,5.12E2,7.1E1,2.8E1,1.7E1,8E0,6.6E1],"tree_param":{"num_deleted":"0","num_feature":"6","num_nodes":"105","size_leaf_vector":"1"}},{"base_weights":[-1.1939441E-2,-1.0532694E0,1.1417975E0,-1.2568831E0,-4.3882698E-1,5.2457047E-1,1.3929298E0,-1.3466337E0,-1.0221261E0,-6.514082E-1,-3.287717E-2,2.7098382E-1,6.664613E-1,4.26737E-1,1.5595231E0,-1.4268588E0,-1.118417E0,-1.0678607E0,-8.971094E-1,-9.056954E-1,-4.542644E-1,2.2912474E-1,-7.100328E-1,1.6379403E-1,3.516933E-1,1.3238044E-1,6.998465E-1,6.917169E-1,-8.7063277E-1,1.6966801E0,1.0598688E0,-1.3508871E0,-1.4992995E0,-1.1747602E0,-4.803296E-1,-4.3864202E-1,-1.0779493E0,-4.4302318E-1,-4.6299454E-2,-7.087891E-1,-1.5626497E0,5.9369403E-1,-7.580339E-1,6.322535E-2,1.3846728E0,-1.1217365E0,-1.7675751E-1,9.987582E-2,3.822834E-1,1.598626E-1,3.9309934E-1,4.3567887E-1,-8.1061E-1,7.097824E-1,-1.2772322E-2,3.033414E-1,1.1769402E0,-5.912311E-2,-1.0383651E0,1.3975565E0,1.8224467E0,2.2227032E-1,1.1788229E0,-4.1385114E-2,-6.886392E-2,-6.558832E-2,-7.840971E-2,-4.902365E-2,-6.351047E-2,-4.0540125E-2,1.57875E-2,-2.7590027E-2,-8.963474E-3,-3.835558E-2,-5.4745592E-2,-2.5282238E-2,-1.6823411E-3,-6.658657E-2,-2.4985546E-2,1.2308797E-2,-8.7792054E-2,3.8499914E-2,-6.2485512E-2,-4.4665713E-2,-1.2726776E-2,-8.04788E-3,3.8392194E-2,1.00541435E-1,1.1555984E-2,4.2457964E-2,-6.392031E-2,5.0915033E-2,-4.062693E-2,1.794195E-2,3.3720569E-3,2.2091366E-2,-8.306104E-3,1.8696059E-2,2.4015147E-3,2.2039479E-2,6.8126866E-3,4.2632114E-2,-6.1695776E-3,-1.9233763E-3,-5.2758414E-2,3.177577E-2,4.3047298E-2,4.0195387E-2,-4.065358E-2,8.630554E-2,2.6648313E-2,-2.6374558E-2,2.144763E-2,-5.4161336E-2,-2.1901399E-2,7.102981E-2,-6.8739995E-2,-5.510458E-2,9.160631E-2,3.997197E-2,-4.4385273E-2,3.725436E-2,6.5443695E-2],"categories":[],"categories_nodes":[],"categories_segments":[],"categories_sizes":[],"default_left":[0,0,0,0,0,0,0,0,0,0,0,0,0,0,0,0,0,0,0,0,0,0,0,0,0,0,0,0,0,0,0,0,0,0,0,0,0,0,0,0,0,0,0,0,0,0,0,0,0,0,0,0,0,0,0,0,0,0,0,0,0,0,0,0,0,0,0,0,0,0,0,0,0,0,0,0,0,0,0,0,0,0,0,0,0,0,0,0,0,0,0,0,0,0,0,0,0,0,0,0,0,0,0,0,0,0,0,0,0,0,0,0,0,0,0,0,0,0,0,0,0,0,0],"id":7,"left_children":[1,3,5,7,9,11,13,15,17,19,21,23,25,27,29,31,33,35,37,39,41,43,45,47,49,51,53,55,57,59,61,63,65,67,69,71,73,75,-1,77,79,81,83,85,87,89,91,93,95,97,99,101,103,105,-1,107,109,111,113,115,117,119,121,-1,-1,-1,-1,-1,-1,-1,-1,-1,-1,-1,-1,-1,-1,-1,-1,-1,-1,-1,-1,-1,-1,-1,-1,-1,-1,-1,-1,-1,-1,-1,-1,-1,-1,-1,-1,-1,-1,-1,-1,-1,-1,-1,-1,-1,-1,-1,-1,-1,-1,-1,-1,-1,-1,-1,-1,-1,-1,-1,-1],"loss_changes":[3.1909753E3,1.7410034E2,1.9457642E2,2.070459E1,3.0096352E1,1.298867E1,1.4339465E2,1.2227173E1,7.229614E-1,1.10686035E1,2.163003E1,1.093009E0,4.079674E0,4.6324554E1,5.0490967E1,1.0290527E0,6.662094E0,8.602295E-1,7.0443726E-1,1.1698898E1,4.215229E1,1.6782467E1,7.266474E0,7.857803E-1,5.328789E-1,4.6432786E0,2.269493E0,2.0560799E1,3.0692863E0,1.9911987E1,1.6377151E1,2.7399292E0,1.4958496E0,2.1667633E0,4.9915E0,4.7830105E-2,2.4623108E-1,1.624372E-1,0E0,9.493526E0,8.120136E0,1.0712275E1,6.720196E0,1.2444739E1,7.480606E0,6.952385E0,1.2984135E1,3.705708E-1,4.979024E-1,3.411204E-1,6.871319E-1,2.902552E0,7.147455E-1,1.9002228E0,0E0,3.5860474E1,1.6408974E1,1.369264E0,3.7225723E-2,1.3514313E1,1.3823608E1,1.4803826E1,7.2602997E0,0E0,0E0,0E0,0E0,0E0,0E0,0E0,0E0,0E0,0E0,0E0,0E0,0E0,0E0,0E0,0E0,0E0,0E0,0E0,0E0,0E0,0E0,0E0,0E0,0E0,0E0,0E0,0E0,0E0,0E0,0E0,0E0,0E0,0E0,0E0,0E0,0E0,0E0,0E0,0E0,0E0,0E0,0E0,0E0,0E0,0E0,0E0,0E0,0E0,0E0,0E0,0E0,0E0,0E0,0E0,0E0,0E0,0E0,0E0,0E0],"parents":[2147483647,0,0,1,1,2,2,3,3,4,4,5,5,6,6,7,7,8,8,9,9,10,10,11,11,12,12,13,13,14,14,15,15,16,16,17,17,18,18,19,19,20,20,21,21,22,22,23,23,24,24,25,25,26,26,27,27,28,28,29,29,30,30,31,31,32,32,33,33,34,34,35,35,36,36,37,37,39,39,40,40,41,41,42,42,43,43,44,44,45,45,46,46,47,47,48,48,49,49,50,50,51,51,52,52,53,53,55,55,56,56,57,57,58,58,59,59,60,60,61,61,62,62],"right_children":[2,4,6,8,10,12,14,16,18,20,22,24,26,28,30,32,34,36,38,40,42,44,46,48,50,52,54,56,58,60,62,64,66,68,70,72,74,76,-1,78,80,82,84,86,88,90,92,94,96,98,100,102,104,106,-1,108,110,112,114,116,118,120,122,-1,-1,-1,-1,-1,-1,-1,-1,-1,-1,-1,-1,-1,-1,-1,-1,-1,-1,-1,-1,-1,-1,-1,-1,-1,-1,-1,-1,-1,-1,-1,-1,-1,-1,-1,-1,-1,-1,-1,-1,-1,-1,-1,-1,-1,-1,-1,-1,-1,-1,-1,-1,-1,-1,-1,-1,-1,-1,-1,-1],"split_conditions":[3.1141222E0,2.4344416E0,6.1811405E-1,1.3867614E0,2.8217235E0,5.301573E-1,3.619718E0,2.0606728E0,1.5218896E0,1.6813599E1,1.2438945E0,7.2208977E0,3.371944E0,1.4273216E0,1.3707327E0,1.2581757E0,4.416448E0,1.1030021E-1,1.5268377E0,1.444935E1,1.218292E0,2.1038267E1,1.456031E0,6.5496864E0,4.1708107E0,3.3054812E0,1.5264023E1,2.058129E1,2.645813E1,7.895826E-1,9.0960777E-1,6.855073E0,7.4940574E-1,1.1226267E0,2.355064E0,1.4453934E0,1.3979212E0,1.930786E0,-4.6299454E-2,7.8692126E0,5.7960325E-1,5.105836E0,2.7359183E0,5.002581E0,2.3607683E1,1.9603573E1,1.4656867E0,3.3984785E0,6.3476677E0,2.1039448E0,1.0462605E1,2.1039448E0,1.1632423E0,5.8711094E-1,-1.2772322E-2,9.7708386E-1,1.3161268E0,1.4296033E0,3.207921E1,1.8571766E1,7.303609E-2,2.9419413E1,4.4460387E0,-4.1385114E-2,-6.886392E-2,-6.558832E-2,-7.840971E-2,-4.902365E-2,-6.351047E-2,-4.0540125E-2,1.57875E-2,-2.7590027E-2,-8.963474E-3,-3.835558E-2,-5.4745592E-2,-2.5282238E-2,-1.6823411E-3,-6.658657E-2,-2.4985546E-2,1.2308797E-2,-8.7792054E-2,3.8499914E-2,-6.2485512E-2,-4.4665713E-2,-1.2726776E-2,-8.04788E-3,3.8392194E-2,1.00541435E-1,1.1555984E-2,4.2457964E-2,-6.392031E-2,5.0915033E-2,-4.062693E-2,1.794195E-2,3.3720569E-3,2.2091366E-2,-8.306104E-3,1.8696059E-2,2.4015147E-3,2.2039479E-2,6.8126866E-3,4.2632114E-2,-6.1695776E-3,-1.9233763E-3,-5.2758414E-2,3.177577E-2,4.3047298E-2,4.0195387E-2,-4.065358E-2,8.630554E-2,2.6648313E-2,-2.6374558E-2,2.144763E-2,-5.4161336E-2,-2.1901399E-2,7.102981E-2,-6.8739995E-2,-5.510458E-2,9.160631E-2,3.997197E-2,-4.4385273E-2,3.725436E-2,6.5443695E-2],"split_indices":[3,3,5,5,3,5,3,3,5,1,5,1,3,5,5,0,0,0,5,1,5,1,5,0,3,3,1,1,1,5,0,1,5,0,3,5,5,3,0,1,0,0,3,0,1,1,5,1,1,0,0,0,0,5,0,5,5,5,1,1,0,1,3,0,0,0,0,0,0,0,0,0,0,0,0,0,0,0,0,0,0,0,0,0,0,0,0,0,0,0,0,0,0,0,0,0,0,0,0,0,0,0,0,0,0,0,0,0,0,0,0,0,0,0,0,0,0,0,0,0,0,0,0],"split_type":[0,0,0,0,0,0,0,0,0,0,0,0,0,0,0,0,0,0,0,0,0,0,0,0,0,0,0,0,0,0,0,0,0,0,0,0,0,0,0,0,0,0,0,0,0,0,0,0,0,0,0,0,0,0,0,0,0,0,0,0,0,0,0,0,0,0,0,0,0,0,0,0,0,0,0,0,0,0,0,0,0,0,0,0,0,0,0,0,0,0,0,0,0,0,0,0,0,0,0,0,0,0,0,0,0,0,0,0,0,0,0,0,0,0,0,0,0,0,0,0,0,0,0],"sum_hessian":[2.654E3,1.395E3,1.259E3,1.047E3,3.48E2,3.65E2,8.94E2,7.54E2,2.93E2,2.28E2,1.2E2,1.32E2,2.33E2,1.32E2,7.62E2,5.54E2,2E2,2.09E2,8.4E1,9.8E1,1.3E2,8.7E1,3.3E1,5.8E1,7.4E1,1.4E1,2.19E2,1.1E2,2.2E1,5.96E2,1.66E2,2.8E2,2.74E2,1.83E2,1.7E1,4E0,2.05E2,6E0,7.8E1,7.7E1,2.1E1,2.9E1,1.01E2,7.7E1,1E1,1.8E1,1.5E1,4.6E1,1.2E1,1.4E1,6E1,1.1E1,3E0,2.17E2,2E0,6.2E1,4.8E1,4E0,1.8E1,1.8E2,4.16E2,2.1E1,1.45E2,1.5E1,2.65E2,7.9E1,1.95E2,6.4E1,1.19E2,1.2E1,5E0,2E0,2E0,1.3E1,1.92E2,5E0,1E0,1.8E1,5.9E1,2E0,1.9E1,2.7E1,2E0,7.9E1,2.2E1,5.9E1,1.8E1,6E0,4E0,1E0,1.7E1,5E0,1E1,4E0,4.2E1,1.1E1,1E0,4E0,1E1,5E1,1E1,6E0,5E0,1E0,2E0,1.49E2,6.8E1,4.3E1,1.9E1,2.5E1,2.3E1,2E0,2E0,1.6E1,2E0,1.79E2,1E0,1E0,4.15E2,1.4E1,7E0,3.5E1,1.1E2],"tree_param":{"num_deleted":"0","num_feature":"6","num_nodes":"123","size_leaf_vector":"1"}},{"base_weights":[1.2001889E-2,-2.9115433E-1,8.0459964E-1,-5.1047456E-1,-8.9413375E-2,3.9356387E-1,9.7463477E-1,-4.360559E-1,-8.2403386E-1,1.0402003E-2,-5.408585E-1,2.529852E-1,5.357345E-1,6.0583377E-1,1.2795942E0,-5.346855E-1,-1.9272938E-1,2.9566467E-1,-8.454067E-1,-2.0698014E-1,1.0420131E-1,-3.2499108E-1,-7.393044E-1,2.7473155E-1,-5.293417E-2,4.15593E-1,7.5779873E-1,8.550875E-1,-8.824143E-2,6.1157995E-1,1.3453071E0,-3.7650335E-1,-9.178582E-1,-4.8105562E-1,5.2886236E-2,-5.0118607E-2,3.3325363E-2,-9.463718E-1,-7.642578E-1,-1.3394253E-1,-6.743458E-1,1.4925054E-2,4.611754E-1,-5.8616984E-1,6.854961E-2,-2.453147E-2,-8.062886E-1,2.3166324E-1,7.89511E-1,5.778267E-1,2.965146E-1,3.461257E-1,8.1303227E-1,1.3276546E0,6.4665663E-1,3.7670562E-1,-4.251422E-1,7.265456E-1,-5.9438158E-2,1.2264638E0,7.863187E-2,-2.0733839E-2,8.420569E-2,-6.719028E-2,-3.5212513E-2,-6.2079724E-2,-1.8094126E-2,2.510848E-2,-1.5094794E-2,2.4669403E-2,-2.84283E-2,-3.181414E-2,-5.118032E-2,-2.714769E-2,-4.575756E-2,-2.128483E-2,5.8104564E-3,-1.9157512E-2,-8.505967E-2,8.293952E-3,-1.1925887E-2,8.818022E-3,4.111057E-2,-4.424572E-2,-1.5420935E-2,1.905251E-2,-3.910284E-2,-2.6875718E-2,2.4667883E-2,-4.8726793E-2,-3.64078E-2,1.33435E-2,-1.8806143E-2,4.19032E-2,1.1241007E-2,7.923689E-3,3.2929443E-2,5.879105E-3,1.850663E-2,3.3557817E-2,-1.0131189E-2,4.2484123E-2,9.386829E-3,3.8645342E-2,7.12895E-2,-3.8471665E-2,3.5059016E-2,4.240293E-2,-2.5470017E-2,-5.377532E-2,-1.3228575E-2,-9.065465E-3,4.7566764E-2,6.272859E-2,1.8371845E-3],"categories":[],"categories_nodes":[],"categories_segments":[],"categories_sizes":[],"default_left":[0,0,0,0,0,0,0,0,0,0,0,0,0,0,0,0,0,0,0,0,0,0,0,0,0,0,0,0,0,0,0,0,0,0,0,0,0,0,0,0,0,0,0,0,0,0,0,0,0,0,0,0,0,0,0,0,0,0,0,0,0,0,0,0,0,0,0,0,0,0,0,0,0,0,0,0,0,0,0,0,0,0,0,0,0,0,0,0,0,0,0,0,0,0,0,0,0,0,0,0,0,0,0,0,0,0,0,0,0,0,0,0,0,0,0],"id":8,"left_children":[1,3,5,7,9,11,13,15,17,19,21,23,25,27,29,31,33,35,37,39,41,43,45,47,-1,49,51,53,55,57,59,61,63,65,67,69,-1,71,73,75,77,79,81,83,85,87,89,91,93,95,97,99,101,103,105,107,109,111,-1,113,-1,-1,-1,-1,-1,-1,-1,-1,-1,-1,-1,-1,-1,-1,-1,-1,-1,-1,-1,-1,-1,-1,-1,-1,-1,-1,-1,-1,-1,-1,-1,-1,-1,-1,-1,-1,-1,-1,-1,-1,-1,-1,-1,-1,-1,-1,-1,-1,-1,-1,-1,-1,-1,-1,-1],"loss_changes":[6.331343E2,8.428697E1,5.056665E1,2.0945206E1,4.4796425E1,4.1614876E0,5.7146515E1,1.7656357E1,4.4139786E0,1.6639656E1,7.4705734E0,3.4284935E0,2.51305E0,4.073066E1,1.1512329E1,3.1535828E1,1.5251188E1,5.46329E-1,6.777649E-1,8.306953E0,1.8158623E1,9.0852165E0,4.4329185E0,2.2337036E0,0E0,1.2002821E0,5.371628E-1,1.618155E1,1.0028538E1,6.4520855E0,4.9604797E0,3.01175E1,1.2974457E1,8.523632E0,1.8801134E1,1.1258625E0,0E0,1.0730743E0,2.8424454E0,1.566778E1,9.215631E0,1.7523561E1,1.157744E1,4.124838E0,9.867343E0,2.6562006E0,4.0776062E-1,2.282989E0,3.0925274E-2,8.777971E-1,5.229032E-1,1.2061546E0,5.509186E-1,1.7288971E0,9.959179E0,1.1709054E1,3.579341E0,5.4784727E0,0E0,5.705658E0,0E0,0E0,0E0,0E0,0E0,0E0,0E0,0E0,0E0,0E0,0E0,0E0,0E0,0E0,0E0,0E0,0E0,0E0,0E0,0E0,0E0,0E0,0E0,0E0,0E0,0E0,0E0,0E0,0E0,0E0,0E0,0E0,0E0,0E0,0E0,0E0,0E0,0E0,0E0,0E0,0E0,0E0,0E0,0E0,0E0,0E0,0E0,0E0,0E0,0E0,0E0,0E0,0E0,0E0,0E0],"parents":[2147483647,0,0,1,1,2,2,3,3,4,4,5,5,6,6,7,7,8,8,9,9,10,10,11,11,12,12,13,13,14,14,15,15,16,16,17,17,18,18,19,19,20,20,21,21,22,22,23,23,25,25,26,26,27,27,28,28,29,29,30,30,31,31,32,32,33,33,34,34,35,35,37,37,38,38,39,39,40,40,41,41,42,42,43,43,44,44,45,45,46,46,47,47,48,48,49,49,50,50,51,51,52,52,53,53,54,54,55,55,56,56,57,57,59,59],"right_children":[2,4,6,8,10,12,14,16,18,20,22,24,26,28,30,32,34,36,38,40,42,44,46,48,-1,50,52,54,56,58,60,62,64,66,68,70,-1,72,74,76,78,80,82,84,86,88,90,92,94,96,98,100,102,104,106,108,110,112,-1,114,-1,-1,-1,-1,-1,-1,-1,-1,-1,-1,-1,-1,-1,-1,-1,-1,-1,-1,-1,-1,-1,-1,-1,-1,-1,-1,-1,-1,-1,-1,-1,-1,-1,-1,-1,-1,-1,-1,-1,-1,-1,-1,-1,-1,-1,-1,-1,-1,-1,-1,-1,-1,-1,-1,-1],"split_conditions":[4.3267956E0,1.6221331E0,1.014907E1,2.658854E1,2.6362024E1,7.5702057E0,6.233538E0,2.1415628E1,2.1481895E1,1.1152004E1,2.7593954E1,1.3966505E1,8.994182E0,2.5496847E1,1.136804E1,1.758254E1,7.2823006E-1,8.250178E-1,2.7370035E1,3.7294521E0,3.586246E0,2.7465479E1,1.7289339E0,1.2461618E1,-5.293417E-2,8.947724E0,6.6974263E0,4.7402396E0,5.002581E0,1.1282161E1,1.0462605E1,1.730642E1,1.8390278E1,2.068741E1,2.4006853E1,4.951308E-1,3.3325363E-2,2.70383E1,2.9419413E1,2.4177008E0,1.1115675E1,2.1071493E1,2.0814644E1,2.6862972E1,3.0690918E1,1.7163101E0,2.7998821E1,9.89906E0,1.3682731E1,7.149592E0,1.0051634E1,6.228666E0,9.9570465E0,4.416448E0,8.847098E0,2.7509907E1,2.6061314E1,6.8449945E0,-5.9438158E-2,2.840369E1,7.863187E-2,-2.0733839E-2,8.420569E-2,-6.719028E-2,-3.5212513E-2,-6.2079724E-2,-1.8094126E-2,2.510848E-2,-1.5094794E-2,2.4669403E-2,-2.84283E-2,-3.181414E-2,-5.118032E-2,-2.714769E-2,-4.575756E-2,-2.128483E-2,5.8104564E-3,-1.9157512E-2,-8.505967E-2,8.293952E-3,-1.1925887E-2,8.818022E-3,4.111057E-2,-4.424572E-2,-1.5420935E-2,1.905251E-2,-3.910284E-2,-2.6875718E-2,2.4667883E-2,-4.8726793E-2,-3.64078E-2,1.33435E-2,-1.8806143E-2,4.19032E-2,1.1241007E-2,7.923689E-3,3.2929443E-2,5.879105E-3,1.850663E-2,3.3557817E-2,-1.0131189E-2,4.2484123E-2,9.386829E-3,3.8645342E-2,7.12895E-2,-3.8471665E-2,3.5059016E-2,4.240293E-2,-2.5470017E-2,-5.377532E-2,-1.3228575E-2,-9.065465E-3,4.7566764E-2,6.272859E-2,1.8371845E-3],"split_indices":[0,0,4,4,4,0,0,1,1,1,4,1,4,4,4,4,0,0,1,0,0,1,0,1,0,0,1,0,0,4,0,4,1,4,4,0,0,4,1,0,4,4,1,4,1,0,4,4,1,4,0,1,4,0,1,4,4,0,0,4,0,0,0,0,0,0,0,0,0,0,0,0,0,0,0,0,0,0,0,0,0,0,0,0,0,0,0,0,0,0,0,0,0,0,0,0,0,0,0,0,0,0,0,0,0,0,0,0,0,0,0,0,0,0,0],"split_type":[0,0,0,0,0,0,0,0,0,0,0,0,0,0,0,0,0,0,0,0,0,0,0,0,0,0,0,0,0,0,0,0,0,0,0,0,0,0,0,0,0,0,0,0,0,0,0,0,0,0,0,0,0,0,0,0,0,0,0,0,0,0,0,0,0,0,0,0,0,0,0,0,0,0,0,0,0,0,0,0,0,0,0,0,0,0,0,0,0,0,0,0,0,0,0,0,0,0,0,0,0,0,0,0,0,0,0,0,0,0,0,0,0,0,0],"sum_hessian":[2.633E3,1.905E3,7.28E2,9.12E2,9.93E2,2.14E2,5.14E2,7.39E2,1.73E2,8.14E2,1.79E2,1.09E2,1.05E2,2.34E2,2.8E2,5.25E2,2.14E2,3E0,1.7E2,2.45E2,5.69E2,8.7E1,9.2E1,1.08E2,1E0,7E1,3.5E1,1.72E2,6.2E1,2.6E1,2.54E2,3.73E2,1.52E2,9.8E1,1.16E2,2E0,1E0,7.1E1,9.9E1,2.13E2,3.2E1,4.56E2,1.13E2,5.2E1,3.5E1,8E0,8.4E1,1.01E2,7E0,2.8E1,4.2E1,5E0,3E1,5.1E1,1.21E2,2.6E1,3.6E1,2.5E1,1E0,1.71E2,8.3E1,3.67E2,6E0,4.9E1,1.03E2,1.2E1,8.6E1,5.1E1,6.5E1,1E0,1E0,1.6E1,5.5E1,4.2E1,5.7E1,9.8E1,1.15E2,2.6E1,6E0,2.86E2,1.7E2,6.4E1,4.9E1,2.4E1,2.8E1,2.6E1,9E0,4E0,4E0,2.3E1,6.1E1,9.6E1,5E0,6E0,1E0,5E0,2.3E1,1.3E1,2.9E1,3E0,2E0,2.8E1,2E0,9E0,4.2E1,4E0,1.17E2,1.7E1,9E0,6E0,3E1,5E0,2E1,1.67E2,4E0],"tree_param":{"num_deleted":"0","num_feature":"6","num_nodes":"115","size_leaf_vector":"1"}},{"base_weights":[-3.6170466E-3,-9.7454906E-1,1.058197E0,-1.1069635E0,-2.2289792E-1,4.8033825E-1,1.2932247E0,-1.1939238E0,-8.3768046E-1,-5.837948E-2,-6.040637E-1,2.925896E-1,5.9419036E-1,5.7613915E-1,1.4659235E0,-1.2986007E0,-9.3815297E-1,-7.4984086E-1,-9.60704E-1,-1.4519626E-1,9.885377E-2,-7.3326856E-2,-4.6763003E-1,3.2734418E-1,6.9432616E-2,5.4430325E-2,6.2974584E-1,8.122636E-1,-6.840905E-1,1.5762507E0,8.4479505E-1,-1.3117715E0,-2.6015344E-1,-1.004335E0,-8.484789E-1,-9.3008614E-1,-3.698707E-1,-9.865843E-1,3.4298217E-1,-4.7092205E-1,1.1975145E-1,3.063087E-1,-6.9073635E-1,1.4092718E-1,3.7491786E-1,-1.6592267E-1,1.821508E-1,8.717545E-1,-3.220289E-1,7.498373E-1,5.3599197E-1,1.0683398E0,2.6184943E-1,-8.464553E-1,-7.6074004E-2,1.0771993E0,1.64258E0,-3.221758E-1,9.519724E-1,-5.6139734E-2,-6.746074E-2,-3.729354E-2,9.063963E-2,-2.1642191E-2,-5.067448E-2,-4.2643424E-2,-8.591825E-3,-3.459206E-2,-6.827279E-2,-6.7988805E-2,-9.025148E-3,-6.37007E-2,-4.4136908E-2,6.5059535E-2,-3.9335873E-2,-1.6441753E-2,-8.829715E-2,-2.8401036E-2,1.6777506E-2,-3.0706286E-2,9.509145E-2,-2.084255E-2,-4.9243104E-2,1.0058927E-2,-1.2037492E-2,2.0062463E-2,-8.964856E-3,8.354545E-4,-9.957308E-3,2.6929975E-2,1.7986959E-3,4.846982E-2,1.2029684E-2,1.6056016E-2,-3.0167496E-2,3.4452837E-2,5.0390135E-2,1.27704395E-2,2.8949363E-2,2.3548566E-2,6.058974E-2,-8.5756175E-2,2.1588074E-2,-3.2345697E-2,-6.353732E-2,-2.7571166E-2,3.707664E-2,5.5928934E-2,2.6067212E-2,9.007155E-2,7.672756E-2,5.5969264E-2,-3.033627E-2,1.9638482E-2,5.51364E-2],"categories":[],"categories_nodes":[],"categories_segments":[],"categories_sizes":[],"default_left":[0,0,0,0,0,0,0,0,0,0,0,0,0,0,0,0,0,0,0,0,0,0,0,0,0,0,0,0,0,0,0,0,0,0,0,0,0,0,0,0,0,0,0,0,0,0,0,0,0,0,0,0,0,0,0,0,0,0,0,0,0,0,0,0,0,0,0,0,0,0,0,0,0,0,0,0,0,0,0,0,0,0,0,0,0,0,0,0,0,0,0,0,0,0,0,0,0,0,0,0,0,0,0,0,0,0,0,0,0,0,0,0,0,0,0],"id":9,"left_children":[1,3,5,7,9,11,13,15,17,19,21,23,25,27,29,31,33,35,37,39,-1,-1,41,43,45,47,49,51,53,55,57,59,61,63,65,67,69,71,73,75,77,79,81,83,85,87,89,91,93,95,97,99,101,103,105,107,109,111,113,-1,-1,-1,-1,-1,-1,-1,-1,-1,-1,-1,-1,-1,-1,-1,-1,-1,-1,-1,-1,-1,-1,-1,-1,-1,-1,-1,-1,-1,-1,-1,-1,-1,-1,-1,-1,-1,-1,-1,-1,-1,-1,-1,-1,-1,-1,-1,-1,-1,-1,-1,-1,-1,-1,-1,-1],"loss_changes":[2.6979946E3,1.3580994E2,1.6914478E2,2.6210327E1,1.2882748E1,7.5854797E0,1.0912537E2,2.2235107E1,2.3810425E0,2.5910252E1,6.609768E0,1.0553169E0,4.283798E0,5.2333023E1,4.7665405E1,8.125E0,6.790161E-1,1.1435898E1,4.252205E0,1.2138437E1,0E0,0E0,9.708464E0,1.0113897E0,5.607993E-1,4.896069E0,1.9737473E0,2.0439598E1,2.6997805E0,1.8290283E1,1.4064713E1,2.8084717E0,1.0413901E1,3.094635E-1,1.9799042E-1,1.1087379E1,1.0439557E1,2.2781067E0,4.271133E0,1.1011655E1,1.1767384E1,2.0259396E1,3.0534E0,6.463441E-1,1.4583006E0,4.5801193E-2,7.1008825E-1,7.490778E-2,2.183993E0,7.167053E-1,1.3238983E0,7.9988327E0,1.6864273E1,1.0405359E0,3.12944E0,1.1188889E0,6.38208E0,4.7811155E0,8.081482E0,0E0,0E0,0E0,0E0,0E0,0E0,0E0,0E0,0E0,0E0,0E0,0E0,0E0,0E0,0E0,0E0,0E0,0E0,0E0,0E0,0E0,0E0,0E0,0E0,0E0,0E0,0E0,0E0,0E0,0E0,0E0,0E0,0E0,0E0,0E0,0E0,0E0,0E0,0E0,0E0,0E0,0E0,0E0,0E0,0E0,0E0,0E0,0E0,0E0,0E0,0E0,0E0,0E0,0E0,0E0,0E0],"parents":[2147483647,0,0,1,1,2,2,3,3,4,4,5,5,6,6,7,7,8,8,9,9,10,10,11,11,12,12,13,13,14,14,15,15,16,16,17,17,18,18,19,19,22,22,23,23,24,24,25,25,26,26,27,27,28,28,29,29,30,30,31,31,32,32,33,33,34,34,35,35,36,36,37,37,38,38,39,39,40,40,41,41,42,42,43,43,44,44,45,45,46,46,47,47,48,48,49,49,50,50,51,51,52,52,53,53,54,54,55,55,56,56,57,57,58,58],"right_children":[2,4,6,8,10,12,14,16,18,20,22,24,26,28,30,32,34,36,38,40,-1,-1,42,44,46,48,50,52,54,56,58,60,62,64,66,68,70,72,74,76,78,80,82,84,86,88,90,92,94,96,98,100,102,104,106,108,110,112,114,-1,-1,-1,-1,-1,-1,-1,-1,-1,-1,-1,-1,-1,-1,-1,-1,-1,-1,-1,-1,-1,-1,-1,-1,-1,-1,-1,-1,-1,-1,-1,-1,-1,-1,-1,-1,-1,-1,-1,-1,-1,-1,-1,-1,-1,-1,-1,-1,-1,-1,-1,-1,-1,-1,-1,-1],"split_conditions":[3.1141222E0,2.7007067E0,9.837804E0,2.234966E0,2.3436495E1,7.975648E0,3.7452066E0,2.5663754E1,2.2994345E1,2.1982481E1,1.2976795E0,8.947724E0,3.371944E0,2.6452984E1,2.6061314E1,5.4956007E0,1.5044991E0,1.6186218E1,6.113963E0,2.8389983E0,9.885377E-2,-7.3326856E-2,2.5042812E1,4.1379943E0,5.043887E0,1.0435247E0,3.3379798E0,3.9360397E0,2.840369E1,6.7860425E-1,4.0131435E0,6.470353E-1,1.9146893E1,1.1030021E-1,2.1754918E0,2.6721108E0,7.559677E-1,2.5133394E1,7.4162183E0,1.9592703E1,9.529921E0,2.558601E0,2.3697107E0,4.0131435E0,5.3229725E-1,9.172138E0,5.3317814E0,5.7960325E-1,5.525922E-1,6.662246E0,4.106067E0,1.394008E1,4.0839925E0,3.535298E0,3.5188367E0,1.4332693E1,3.174092E0,3.7708447E0,1.469911E0,-5.6139734E-2,-6.746074E-2,-3.729354E-2,9.063963E-2,-2.1642191E-2,-5.067448E-2,-4.2643424E-2,-8.591825E-3,-3.459206E-2,-6.827279E-2,-6.7988805E-2,-9.025148E-3,-6.37007E-2,-4.4136908E-2,6.5059535E-2,-3.9335873E-2,-1.6441753E-2,-8.829715E-2,-2.8401036E-2,1.6777506E-2,-3.0706286E-2,9.509145E-2,-2.084255E-2,-4.9243104E-2,1.0058927E-2,-1.2037492E-2,2.0062463E-2,-8.964856E-3,8.354545E-4,-9.957308E-3,2.6929975E-2,1.7986959E-3,4.846982E-2,1.2029684E-2,1.6056016E-2,-3.0167496E-2,3.4452837E-2,5.0390135E-2,1.27704395E-2,2.8949363E-2,2.3548566E-2,6.058974E-2,-8.5756175E-2,2.1588074E-2,-3.2345697E-2,-6.353732E-2,-2.7571166E-2,3.707664E-2,5.5928934E-2,2.6067212E-2,9.007155E-2,7.672756E-2,5.5969264E-2,-3.033627E-2,1.9638482E-2,5.51364E-2],"split_indices":[3,3,4,3,4,4,3,4,4,4,5,0,3,4,4,0,5,4,0,3,0,0,4,3,3,0,0,0,4,5,3,5,4,0,3,0,0,4,0,4,4,0,0,3,5,0,3,0,5,3,3,4,0,3,3,0,0,3,0,0,0,0,0,0,0,0,0,0,0,0,0,0,0,0,0,0,0,0,0,0,0,0,0,0,0,0,0,0,0,0,0,0,0,0,0,0,0,0,0,0,0,0,0,0,0,0,0,0,0,0,0,0,0,0,0],"split_type":[0,0,0,0,0,0,0,0,0,0,0,0,0,0,0,0,0,0,0,0,0,0,0,0,0,0,0,0,0,0,0,0,0,0,0,0,0,0,0,0,0,0,0,0,0,0,0,0,0,0,0,0,0,0,0,0,0,0,0,0,0,0,0,0,0,0,0,0,0,0,0,0,0,0,0,0,0,0,0,0,0,0,0,0,0,0,0,0,0,0,0,0,0,0,0,0,0,0,0,0,0,0,0,0,0,0,0,0,0,0,0,0,0,0,0],"sum_hessian":[2.615E3,1.366E3,1.249E3,1.161E3,2.05E2,3.62E2,8.87E2,8.75E2,2.86E2,1.44E2,6.1E1,1.38E2,2.24E2,1.73E2,7.14E2,6.18E2,2.57E2,1.71E2,1.15E2,1.39E2,5E0,7E0,5.4E1,1.19E2,1.9E1,1.4E1,2.1E2,1.46E2,2.7E1,6.05E2,1.09E2,6.1E2,8E0,1.42E2,1.15E2,1.15E2,5.6E1,1.13E2,2E0,6.2E1,7.7E1,1.2E1,4.2E1,2.5E1,9.4E1,6E0,1.3E1,4E0,1E1,8.9E1,1.21E2,9.9E1,4.7E1,2.1E1,6E0,7.3E1,5.32E2,9E0,1E2,1.06E2,5.04E2,7E0,1E0,3E0,1.39E2,1.14E2,1E0,7.6E1,3.9E1,8E0,4.8E1,2.7E1,8.6E1,1E0,1E0,5.7E1,5E0,1.8E1,5.9E1,8E0,4E0,2.3E1,1.9E1,2.2E1,3E0,9E1,4E0,1E0,5E0,3E0,1E1,3E0,1E0,3E0,7E0,7.5E1,1.4E1,1.7E1,1.04E2,2E1,7.9E1,3E0,4.4E1,1.6E1,5E0,4E0,2E0,6.7E1,6E0,2.09E2,3.23E2,1E0,8E0,2.2E1,7.8E1],"tree_param":{"num_deleted":"0","num_feature":"6","num_nodes":"115","size_leaf_vector":"1"}},{"base_weights":[1.2720236E-2,-9.117244E-1,1.0128316E0,-1.1025753E0,-4.3838605E-1,4.5976293E-1,1.232674E0,-1.1919374E0,-9.0392566E-1,-2.5101584E-1,-7.554325E-1,2.977617E-1,5.9199077E-1,2.4554636E-1,1.3571584E0,-1.2539774E0,-8.1041634E-1,-2.3677346E-1,-9.166491E-1,-4.5262966E-1,1.8903224E-1,-7.572128E-2,-6.749602E-1,2.5443536E-1,4.3725792E-1,-1.7463572E-1,6.172521E-1,5.1912594E-1,-7.048159E-1,1.4163674E0,3.4412965E-1,-1.1786084E0,-1.3336829E0,7.070016E-2,-8.734576E-1,-4.928842E-2,1.064299E-1,-9.683886E-1,-7.4533E-1,-7.724494E-1,8.414413E-2,3.7404966E-1,-9.7189647E-1,-1.7184511E-1,-7.967446E-1,2.8473693E-1,2.8315932E-2,3.482866E-1,8.388952E-1,2.1552902E-2,-5.0312483E-1,7.6110566E-1,5.1376563E-1,-1.35679E-2,1.3896447E0,-5.8631428E-2,-4.2685866E-1,9.8757166E-1,1.4736034E0,-1.4194767E-1,9.0640604E-1,-3.8207512E-2,-5.9967022E-2,-5.4214645E-2,-6.916963E-2,-4.830269E-2,4.9056173E-3,-1.7403234E-2,-4.876172E-2,-2.2890313E-2,-3.9185096E-2,-9.544738E-3,-4.6565156E-2,3.4245815E-2,-1.3478986E-2,-1.9524293E-2,3.285461E-2,-6.846842E-2,7.5070575E-2,-3.361213E-2,6.769482E-2,-4.0827382E-2,7.7671194E-3,1.1051053E-2,2.0838825E-2,-3.5187423E-3,2.3971712E-2,3.2346185E-2,1.34511655E-2,4.5983788E-2,1.087482E-2,-3.4746017E-2,-7.1810484E-3,3.9760318E-2,5.5507184E-3,-3.0494556E-2,2.6975313E-2,6.366803E-2,-1.6356098E-2,8.3708815E-2,-4.3917682E-2,2.0171637E-3,-5.166551E-2,5.2987296E-2,3.565184E-2,7.80952E-2,5.796839E-2,-1.7933724E-2,3.9834723E-2,2.4107445E-2,5.651995E-2],"categories":[],"categories_nodes":[],"categories_segments":[],"categories_sizes":[],"default_left":[0,0,0,0,0,0,0,0,0,0,0,0,0,0,0,0,0,0,0,0,0,0,0,0,0,0,0,0,0,0,0,0,0,0,0,0,0,0,0,0,0,0,0,0,0,0,0,0,0,0,0,0,0,0,0,0,0,0,0,0,0,0,0,0,0,0,0,0,0,0,0,0,0,0,0,0,0,0,0,0,0,0,0,0,0,0,0,0,0,0,0,0,0,0,0,0,0,0,0,0,0,0,0,0,0,0,0,0,0,0,0],"id":10,"left_children":[1,3,5,7,9,11,13,15,17,19,21,23,25,27,29,31,33,35,37,39,41,-1,43,45,47,49,51,53,55,57,59,61,63,-1,65,-1,-1,67,69,71,73,75,77,79,81,83,85,87,89,-1,91,93,95,97,99,-1,101,103,105,107,109,-1,-1,-1,-1,-1,-1,-1,-1,-1,-1,-1,-1,-1,-1,-1,-1,-1,-1,-1,-1,-1,-1,-1,-1,-1,-1,-1,-1,-1,-1,-1,-1,-1,-1,-1,-1,-1,-1,-1,-1,-1,-1,-1,-1,-1,-1,-1,-1,-1,-1],"loss_changes":[2.3982751E3,1.21291016E2,1.5093188E2,1.5964233E1,2.2918938E1,7.4496307E0,1.0915454E2,1.458197E1,2.346466E0,2.1910625E1,7.7730484E0,8.678522E-1,3.8841782E0,2.6625858E1,4.6957153E1,1.8222046E0,1.4556953E1,1.4499863E1,1.901947E0,2.9077374E1,1.7117313E1,0E0,7.9509277E0,8.5526085E-1,1.0299892E0,1.6096225E0,2.4225922E0,3.6652733E1,2.4901876E0,1.6878052E1,1.2427604E1,1.65271E0,1.8100281E0,0E0,8.461395E0,0E0,0E0,6.1180115E-1,4.466133E-1,9.614727E0,1.3785116E1,1.4971518E1,1.286976E1,2.1524027E1,2.1253967E0,8.417282E-1,7.460796E-1,5.8343315E-1,1.0115528E-1,0E0,2.4495101E-1,1.6187019E0,3.5974026E0,2.0592623E1,2.0830029E1,0E0,4.5750523E0,1.0474701E0,1.6418945E1,5.3714767E0,1.4506226E0,0E0,0E0,0E0,0E0,0E0,0E0,0E0,0E0,0E0,0E0,0E0,0E0,0E0,0E0,0E0,0E0,0E0,0E0,0E0,0E0,0E0,0E0,0E0,0E0,0E0,0E0,0E0,0E0,0E0,0E0,0E0,0E0,0E0,0E0,0E0,0E0,0E0,0E0,0E0,0E0,0E0,0E0,0E0,0E0,0E0,0E0,0E0,0E0,0E0,0E0],"parents":[2147483647,0,0,1,1,2,2,3,3,4,4,5,5,6,6,7,7,8,8,9,9,10,10,11,11,12,12,13,13,14,14,15,15,16,16,17,17,18,18,19,19,20,20,22,22,23,23,24,24,25,25,26,26,27,27,28,28,29,29,30,30,31,31,32,32,34,34,37,37,38,38,39,39,40,40,41,41,42,42,43,43,44,44,45,45,46,46,47,47,48,48,50,50,51,51,52,52,53,53,54,54,56,56,57,57,58,58,59,59,60,60],"right_children":[2,4,6,8,10,12,14,16,18,20,22,24,26,28,30,32,34,36,38,40,42,-1,44,46,48,50,52,54,56,58,60,62,64,-1,66,-1,-1,68,70,72,74,76,78,80,82,84,86,88,90,-1,92,94,96,98,100,-1,102,104,106,108,110,-1,-1,-1,-1,-1,-1,-1,-1,-1,-1,-1,-1,-1,-1,-1,-1,-1,-1,-1,-1,-1,-1,-1,-1,-1,-1,-1,-1,-1,-1,-1,-1,-1,-1,-1,-1,-1,-1,-1,-1,-1,-1,-1,-1,-1,-1,-1,-1,-1,-1],"split_conditions":[3.1141222E0,2.39655E0,6.085402E-1,1.3494982E0,1.2669176E0,5.394356E-1,3.5188367E0,2.2065036E0,1.353877E0,1.6813599E1,1.2976795E0,6.386817E0,4.3337154E0,1.3900139E0,1.4842564E0,1.4269977E0,2.345236E-1,1.9458406E0,1.5218896E0,2.8217235E0,2.3607683E1,-7.572128E-2,1.3689435E0,8.947724E0,5.279896E-1,3.3984785E0,2.8008862E0,2.058129E1,3.267492E0,6.7860425E-1,4.8483295E0,6.855073E0,6.20976E-1,7.070016E-2,2.3607683E1,-4.928842E-2,1.064299E-1,1.1030021E-1,1.5309873E0,5.7703596E-1,2.9042504E0,1.4269977E0,2.9860456E0,2.558601E0,9.512185E0,4.693133E0,5.652453E0,2.3247426E0,7.0352564E0,2.1552902E-2,3.619718E0,1.4771836E1,3.1977375E0,1.0209113E0,3.4524546E0,-5.8631428E-2,3.3957136E0,8.481341E0,1.353877E0,5.105836E0,2.8181824E1,-3.8207512E-2,-5.9967022E-2,-5.4214645E-2,-6.916963E-2,-4.830269E-2,4.9056173E-3,-1.7403234E-2,-4.876172E-2,-2.2890313E-2,-3.9185096E-2,-9.544738E-3,-4.6565156E-2,3.4245815E-2,-1.3478986E-2,-1.9524293E-2,3.285461E-2,-6.846842E-2,7.5070575E-2,-3.361213E-2,6.769482E-2,-4.0827382E-2,7.7671194E-3,1.1051053E-2,2.0838825E-2,-3.5187423E-3,2.3971712E-2,3.2346185E-2,1.34511655E-2,4.5983788E-2,1.087482E-2,-3.4746017E-2,-7.1810484E-3,3.9760318E-2,5.5507184E-3,-3.0494556E-2,2.6975313E-2,6.366803E-2,-1.6356098E-2,8.3708815E-2,-4.3917682E-2,2.0171637E-3,-5.166551E-2,5.2987296E-2,3.565184E-2,7.80952E-2,5.796839E-2,-1.7933724E-2,3.9834723E-2,2.4107445E-2,5.651995E-2],"split_indices":[3,3,5,5,5,5,3,3,5,1,5,3,1,5,5,0,0,3,5,3,1,0,5,0,5,1,0,1,3,5,3,1,5,0,1,0,0,0,5,5,3,0,3,0,0,0,3,0,3,0,3,1,3,0,3,0,3,0,5,0,1,0,0,0,0,0,0,0,0,0,0,0,0,0,0,0,0,0,0,0,0,0,0,0,0,0,0,0,0,0,0,0,0,0,0,0,0,0,0,0,0,0,0,0,0,0,0,0,0,0,0],"split_type":[0,0,0,0,0,0,0,0,0,0,0,0,0,0,0,0,0,0,0,0,0,0,0,0,0,0,0,0,0,0,0,0,0,0,0,0,0,0,0,0,0,0,0,0,0,0,0,0,0,0,0,0,0,0,0,0,0,0,0,0,0,0,0,0,0,0,0,0,0,0,0,0,0,0,0,0,0,0,0,0,0,0,0,0,0,0,0,0,0,0,0,0,0,0,0,0,0,0,0,0,0,0,0,0,0,0,0,0,0,0,0],"sum_hessian":[2.592E3,1.347E3,1.245E3,9.59E2,3.88E2,3.55E2,8.9E2,6.58E2,3.01E2,2.45E2,1.43E2,1.61E2,1.94E2,1E2,7.9E2,5.64E2,9.4E1,6E0,2.95E2,1.68E2,7.7E1,1.2E1,1.31E2,1.25E2,3.6E1,6E0,1.88E2,7.8E1,2.2E1,7.46E2,4.4E1,2.98E2,2.66E2,2E0,9.2E1,5E0,1E0,2.23E2,7.2E1,1.05E2,6.3E1,6.7E1,1E1,2.6E1,1.05E2,1.1E2,1.5E1,3.1E1,5E0,2E0,4E0,7.6E1,1.12E2,4.9E1,2.9E1,7E0,1.5E1,9E1,6.56E2,2.4E1,2E1,1.6E1,2.82E2,4.8E1,2.18E2,8.4E1,8E0,3E0,2.2E2,1E1,6.2E1,2.3E1,8.2E1,2.3E1,4E1,1.8E1,4.9E1,9E0,1E0,2E1,6E0,1.03E2,2E0,7.6E1,3.4E1,1.3E1,2E0,5E0,2.6E1,4E0,1E0,2E0,2E0,7.2E1,4E0,2E0,1.1E2,9E0,4E1,2.6E1,3E0,9E0,6E0,6.9E1,2.1E1,5.09E2,1.47E2,2E1,4E0,8E0,1.2E1],"tree_param":{"num_deleted":"0","num_feature":"6","num_nodes":"111","size_leaf_vector":"1"}},{"base_weights":[6.563682E-3,-9.248916E-1,9.100003E-1,-1.0803822E0,-5.4117554E-1,4.043401E-1,1.12089E0,-1.2037567E0,-9.1355836E-1,-3.0435613E-1,-7.5014454E-1,-4.8594403E-1,4.508677E-1,2.8581303E-1,1.3066949E0,-1.0739894E0,-1.2691033E0,-9.6117926E-1,-7.2913456E-1,-4.6730173E-1,9.283492E-1,-1.1621755E0,-6.1780506E-1,-5.6050036E-2,-7.678692E-1,2.6697248E-1,5.454678E-1,4.5622426E-1,-7.344539E-1,1.3914106E0,8.3834076E-1,-1.0950519E0,6.845831E-2,-6.404769E-2,-6.127493E-1,-2.375289E-1,-9.722636E-1,-4.6533078E-1,-7.620604E-1,-5.840298E-1,4.1125125E-1,-5.1641595E-2,1.3125923E0,6.1867803E-2,-1.2412382E0,3.326255E-1,-7.166359E-1,-3.0235363E-2,1.8709591E-1,-1.1112949E0,-6.481423E-2,2.0992823E-1,4.5643798E-1,5.534382E-1,-1.4230578E-2,3.8558718E-2,7.2495806E-1,-9.799481E-4,-7.634229E-1,1.1200669E0,1.4871061E0,-2.466072E-2,9.810173E-1,-5.681172E-2,-3.2949887E-2,-5.490442E-2,6.96156E-2,-4.1296445E-2,6.761178E-2,-4.9883347E-2,-3.2391943E-2,3.6875607E-4,-2.5448725E-2,-1.19401775E-2,-3.866393E-2,-3.8219675E-2,-8.179042E-3,4.876866E-2,-6.816824E-2,7.606431E-2,-5.5880107E-2,-6.355607E-2,-1.9460326E-2,5.9582174E-2,-4.0967204E-2,-2.109814E-2,-3.9225586E-2,-1.6460986E-3,1.8016992E-2,-7.231208E-2,3.083331E-2,3.693054E-2,-4.233172E-2,-4.668914E-3,1.1675413E-2,2.9284853E-2,1.5740445E-2,6.870801E-3,2.8624445E-2,1.8494396E-2,-5.8114495E-2,7.979441E-2,1.9203804E-2,-3.9525878E-2,-3.5061836E-3,5.7140227E-2,-6.976994E-2,4.936517E-2,7.665996E-2,-4.449575E-2,3.034285E-2,5.5984538E-2,2.8479083E-2],"categories":[],"categories_nodes":[],"categories_segments":[],"categories_sizes":[],"default_left":[0,0,0,0,0,0,0,0,0,0,0,0,0,0,0,0,0,0,0,0,0,0,0,0,0,0,0,0,0,0,0,0,0,0,0,0,0,0,0,0,0,0,0,0,0,0,0,0,0,0,0,0,0,0,0,0,0,0,0,0,0,0,0,0,0,0,0,0,0,0,0,0,0,0,0,0,0,0,0,0,0,0,0,0,0,0,0,0,0,0,0,0,0,0,0,0,0,0,0,0,0,0,0,0,0,0,0,0,0,0,0,0,0],"id":11,"left_children":[1,3,5,7,9,11,13,15,17,19,21,23,25,27,29,31,33,35,37,39,41,43,45,47,49,51,53,55,57,59,61,63,-1,-1,65,67,69,71,73,75,77,-1,79,-1,81,83,85,-1,87,89,91,93,95,97,-1,99,101,-1,103,105,107,109,111,-1,-1,-1,-1,-1,-1,-1,-1,-1,-1,-1,-1,-1,-1,-1,-1,-1,-1,-1,-1,-1,-1,-1,-1,-1,-1,-1,-1,-1,-1,-1,-1,-1,-1,-1,-1,-1,-1,-1,-1,-1,-1,-1,-1,-1,-1,-1,-1,-1,-1],"loss_changes":[2.2047585E3,7.63822E1,1.413761E2,1.7773804E1,1.8280167E1,1.6498268E1,1.4516785E2,3.0804443E0,2.7594604E0,3.5986725E1,1.0078537E1,2.38092E0,6.3606644E0,3.0239845E1,2.9265747E1,1.0864868E1,1.8829956E0,2.2556458E0,3.836937E-1,1.634082E1,1.7180664E1,1.0452393E1,1.4516014E1,1.3137723E0,2.825338E0,1.2984018E0,1.7850647E0,1.6583694E1,5.027542E-1,1.5160522E1,1.4799805E1,2.501587E0,0E0,0E0,9.313958E0,6.729354E0,1.8673096E0,2.5132155E-1,2.4971771E-1,1.0415848E1,2.0350683E1,0E0,1.0829193E1,0E0,6.764984E-1,1.5819803E1,2.4291306E0,0E0,2.7868038E-1,5.522048E0,3.766003E0,7.4415445E-1,3.4651613E-1,1.8551636E0,0E0,2.3904612E1,2.6106644E1,0E0,3.9539814E-1,1.1489502E1,9.452026E0,1.0375673E1,5.2389374E0,0E0,0E0,0E0,0E0,0E0,0E0,0E0,0E0,0E0,0E0,0E0,0E0,0E0,0E0,0E0,0E0,0E0,0E0,0E0,0E0,0E0,0E0,0E0,0E0,0E0,0E0,0E0,0E0,0E0,0E0,0E0,0E0,0E0,0E0,0E0,0E0,0E0,0E0,0E0,0E0,0E0,0E0,0E0,0E0,0E0,0E0,0E0,0E0,0E0,0E0],"parents":[2147483647,0,0,1,1,2,2,3,3,4,4,5,5,6,6,7,7,8,8,9,9,10,10,11,11,12,12,13,13,14,14,15,15,16,16,17,17,18,18,19,19,20,20,21,21,22,22,23,23,24,24,25,25,26,26,27,27,28,28,29,29,30,30,31,31,34,34,35,35,36,36,37,37,38,38,39,39,40,40,42,42,44,44,45,45,46,46,48,48,49,49,50,50,51,51,52,52,53,53,55,55,56,56,58,58,59,59,60,60,61,61,62,62],"right_children":[2,4,6,8,10,12,14,16,18,20,22,24,26,28,30,32,34,36,38,40,42,44,46,48,50,52,54,56,58,60,62,64,-1,-1,66,68,70,72,74,76,78,-1,80,-1,82,84,86,-1,88,90,92,94,96,98,-1,100,102,-1,104,106,108,110,112,-1,-1,-1,-1,-1,-1,-1,-1,-1,-1,-1,-1,-1,-1,-1,-1,-1,-1,-1,-1,-1,-1,-1,-1,-1,-1,-1,-1,-1,-1,-1,-1,-1,-1,-1,-1,-1,-1,-1,-1,-1,-1,-1,-1,-1,-1,-1,-1,-1,-1],"split_conditions":[2.8913774E0,2.265945E0,9.89906E0,2.228071E1,9.6930027E-1,3.1141222E0,3.5188367E0,7.343586E-1,1.5218896E0,9.406186E-1,1.1783682E0,8.527257E0,7.8086762E0,2.7119081E1,2.6061314E1,1.2561303E1,1.3517783E0,1.210931E0,1.5309873E0,1.5977538E1,2.355064E0,7.1389693E-1,2.2497538E1,3.5324243E-1,9.451398E0,6.386817E0,8.438197E-1,9.8613757E-1,2.9042504E0,1.3575641E1,4.0131435E0,2.1754918E0,6.845831E-2,-6.404769E-2,2.1942859E0,1.1100458E0,2.1646435E0,9.9723774E-1,1.2335503E0,2.6801293E0,8.724807E-1,-5.1641595E-2,2.8217235E0,6.1867803E-2,2.5496847E1,1.2734741E0,1.3039744E0,-3.0235363E-2,7.5025973E0,6.791083E-1,5.257528E-1,3.535298E0,6.8132195E0,3.962825E-1,-1.4230578E-2,8.848965E-1,2.1302794E1,-9.799481E-4,1.7464358E0,1.0030577E0,3.7452066E0,1.4458246E0,2.78552E1,-5.681172E-2,-3.2949887E-2,-5.490442E-2,6.96156E-2,-4.1296445E-2,6.761178E-2,-4.9883347E-2,-3.2391943E-2,3.6875607E-4,-2.5448725E-2,-1.19401775E-2,-3.866393E-2,-3.8219675E-2,-8.179042E-3,4.876866E-2,-6.816824E-2,7.606431E-2,-5.5880107E-2,-6.355607E-2,-1.9460326E-2,5.9582174E-2,-4.0967204E-2,-2.109814E-2,-3.9225586E-2,-1.6460986E-3,1.8016992E-2,-7.231208E-2,3.083331E-2,3.693054E-2,-4.233172E-2,-4.668914E-3,1.1675413E-2,2.9284853E-2,1.5740445E-2,6.870801E-3,2.8624445E-2,1.8494396E-2,-5.8114495E-2,7.979441E-2,1.9203804E-2,-3.9525878E-2,-3.5061836E-3,5.7140227E-2,-6.976994E-2,4.936517E-2,7.665996E-2,-4.449575E-2,3.034285E-2,5.5984538E-2,2.8479083E-2],"split_indices":[3,3,4,4,5,3,3,5,5,2,2,4,4,4,4,4,2,5,5,4,3,2,4,2,4,3,2,2,3,4,3,3,0,0,3,2,3,3,2,3,2,0,3,0,4,2,2,0,4,2,2,3,3,2,0,2,4,0,2,2,3,2,4,0,0,0,0,0,0,0,0,0,0,0,0,0,0,0,0,0,0,0,0,0,0,0,0,0,0,0,0,0,0,0,0,0,0,0,0,0,0,0,0,0,0,0,0,0,0,0,0,0,0],"split_type":[0,0,0,0,0,0,0,0,0,0,0,0,0,0,0,0,0,0,0,0,0,0,0,0,0,0,0,0,0,0,0,0,0,0,0,0,0,0,0,0,0,0,0,0,0,0,0,0,0,0,0,0,0,0,0,0,0,0,0,0,0,0,0,0,0,0,0,0,0,0,0,0,0,0,0,0,0,0,0,0,0,0,0,0,0,0,0,0,0,0,0,0,0,0,0,0,0,0,0,0,0,0,0,0,0,0,0,0,0,0,0,0,0],"sum_hessian":[2.618E3,1.289E3,1.329E3,9.16E2,3.73E2,3.92E2,9.37E2,5.23E2,3.93E2,1.76E2,1.97E2,1.9E1,3.73E2,1.71E2,7.66E2,1.81E2,3.42E2,3.09E2,8.4E1,1.56E2,2E1,4.6E1,1.51E2,8E0,1.1E1,1.28E2,2.45E2,1.47E2,2.4E1,6.47E2,1.19E2,1.8E2,1E0,3.35E2,7E0,5E0,3.04E2,1.1E1,7.3E1,1.38E2,1.8E1,3E0,1.7E1,1E0,4.5E1,1.4E1,1.37E2,2E0,6E0,7E0,4E0,1E2,2.8E1,2.43E2,2E0,5.8E1,8.9E1,1E0,2.3E1,1.72E2,4.75E2,1.7E1,1.02E2,1.63E2,1.7E1,6E0,1E0,4E0,1E0,2.8E2,2.4E1,1E0,1E1,2E0,7.1E1,9.6E1,4.2E1,1.4E1,4E0,1.6E1,1E0,4.3E1,2E0,8E0,6E0,2.7E1,1.1E2,3E0,3E0,6E0,1E0,2E0,2E0,7E0,9.3E1,1.3E1,1.5E1,1.1E1,2.32E2,4.6E1,1.2E1,2.4E1,6.5E1,2.2E1,1E0,1.71E2,1E0,4.2E1,4.33E2,7E0,1E1,7.5E1,2.7E1],"tree_param":{"num_deleted":"0","num_feature":"6","num_nodes":"113","size_leaf_vector":"1"}},{"base_weights":[-5.6574056E-3,-8.140499E-1,9.220864E-1,-9.790769E-1,-2.5268427E-1,4.3954933E-1,1.1205988E0,-1.0497698E0,-7.6754904E-1,-1.3563715E-1,-6.484657E-1,2.2274695E-1,5.319474E-1,4.8781446E-1,1.2695366E0,-1.1377188E0,-7.889096E-1,-7.786482E-1,5.020198E-1,7.8814214E-1,-1.9402461E-1,-7.884416E-1,-4.0890083E-1,-3.803389E-2,2.4659757E-1,8.571291E-2,5.539938E-1,6.8242556E-1,-4.6179792E-1,1.3185186E0,3.2674372E-1,-1.1393894E0,-3.216678E-3,-8.133071E-1,1.1493542E0,-1.564511E-2,-7.8614193E-1,-1.0267737E-2,4.7919225E-2,-5.824264E-1,1.531669E0,-4.943704E-1,4.819169E-2,-4.8778751E-1,-8.9533895E-1,-6.438371E-1,-2.24214E-2,-9.950778E-2,1.2880779E-2,2.09398E-1,3.6896887E-1,3.6100116E-2,-2.7730486E-1,4.9130166E-1,6.559848E-1,1.0633745E0,4.7625196E-1,-8.7095994E-1,-1.2174473E-1,9.777198E-1,1.3855308E0,-6.638114E-2,1.226244E0,-4.9053103E-2,-5.7849444E-2,-3.6120784E-2,-4.683579E-2,1.0457895E-1,-1.8377384E-2,-4.4737265E-2,-3.69772E-2,2.743475E-2,-4.5919485E-2,1.176176E-1,2.9624421E-2,-3.3390805E-2,-4.785328E-3,-9.67239E-3,1.4826241E-2,-3.2635193E-2,-3.0198644E-3,-2.3532808E-2,-4.7827613E-2,4.5543015E-3,-3.9844707E-2,3.9354187E-2,-2.6277972E-2,-7.4670725E-3,2.4970016E-3,1.1792249E-2,-4.8160194E-3,2.3638852E-2,1.1109049E-2,6.21748E-4,-2.1212364E-2,3.625905E-2,2.251858E-2,2.3112621E-2,3.5677925E-2,-2.5436753E-2,6.720958E-2,-3.15592E-2,4.166601E-2,-1.8697726E-2,-6.217713E-2,-3.6232226E-2,2.473411E-2,4.9952E-2,1.5869768E-2,7.40424E-2,5.1570553E-2,-5.2249253E-2,1.3972466E-2,-8.1950426E-4,6.760732E-2],"categories":[],"categories_nodes":[],"categories_segments":[],"categories_sizes":[],"default_left":[0,0,0,0,0,0,0,0,0,0,0,0,0,0,0,0,0,0,0,0,0,0,0,0,0,0,0,0,0,0,0,0,0,0,0,0,0,0,0,0,0,0,0,0,0,0,0,0,0,0,0,0,0,0,0,0,0,0,0,0,0,0,0,0,0,0,0,0,0,0,0,0,0,0,0,0,0,0,0,0,0,0,0,0,0,0,0,0,0,0,0,0,0,0,0,0,0,0,0,0,0,0,0,0,0,0,0,0,0,0,0,0,0,0,0],"id":12,"left_children":[1,3,5,7,9,11,13,15,17,19,21,23,25,27,29,31,33,35,37,39,41,43,45,47,49,51,53,55,57,59,61,63,-1,65,67,-1,69,-1,-1,71,73,75,77,79,81,83,85,87,-1,89,91,-1,93,95,97,99,101,103,105,107,109,111,113,-1,-1,-1,-1,-1,-1,-1,-1,-1,-1,-1,-1,-1,-1,-1,-1,-1,-1,-1,-1,-1,-1,-1,-1,-1,-1,-1,-1,-1,-1,-1,-1,-1,-1,-1,-1,-1,-1,-1,-1,-1,-1,-1,-1,-1,-1,-1,-1,-1,-1,-1,-1],"loss_changes":[1.9747009E3,1.3009784E2,1.1694556E2,1.5448608E1,1.4782394E1,7.073044E0,8.118591E1,1.773169E1,4.2800446E0,1.35832615E1,2.1255322E0,6.8733644E-1,2.4218216E0,3.11776E1,3.1987427E1,1.0115967E0,1.07708435E1,7.1032715E-1,1.1652712E0,1.6177906E1,1.7119759E1,1.0095272E0,2.6187072E0,2.0738198E-1,3.7795448E-1,3.2030115E0,1.2058868E0,1.0410851E1,3.9289336E0,1.387793E1,1.2811575E1,5.4797363E-1,0E0,1.6339569E0,5.0565424E0,0E0,6.9963074E-1,0E0,0E0,2.7840073E0,6.3139534E0,7.1964703E0,7.918291E0,9.473493E-1,3.816719E-1,2.0973186E0,5.3011727E0,7.448591E-2,0E0,6.614578E-1,2.3018909E-1,0E0,3.8845104E-1,1.1284485E0,6.5169907E-1,2.1874641E1,3.6905556E1,1.9422531E0,6.6764107E0,1.2737503E0,1.7206055E1,9.091228E0,1.7431183E0,0E0,0E0,0E0,0E0,0E0,0E0,0E0,0E0,0E0,0E0,0E0,0E0,0E0,0E0,0E0,0E0,0E0,0E0,0E0,0E0,0E0,0E0,0E0,0E0,0E0,0E0,0E0,0E0,0E0,0E0,0E0,0E0,0E0,0E0,0E0,0E0,0E0,0E0,0E0,0E0,0E0,0E0,0E0,0E0,0E0,0E0,0E0,0E0,0E0,0E0,0E0,0E0],"parents":[2147483647,0,0,1,1,2,2,3,3,4,4,5,5,6,6,7,7,8,8,9,9,10,10,11,11,12,12,13,13,14,14,15,15,16,16,17,17,18,18,19,19,20,20,21,21,22,22,23,23,24,24,25,25,26,26,27,27,28,28,29,29,30,30,31,31,33,33,34,34,36,36,39,39,40,40,41,41,42,42,43,43,44,44,45,45,46,46,47,47,49,49,50,50,52,52,53,53,54,54,55,55,56,56,57,57,58,58,59,59,60,60,61,61,62,62],"right_children":[2,4,6,8,10,12,14,16,18,20,22,24,26,28,30,32,34,36,38,40,42,44,46,48,50,52,54,56,58,60,62,64,-1,66,68,-1,70,-1,-1,72,74,76,78,80,82,84,86,88,-1,90,92,-1,94,96,98,100,102,104,106,108,110,112,114,-1,-1,-1,-1,-1,-1,-1,-1,-1,-1,-1,-1,-1,-1,-1,-1,-1,-1,-1,-1,-1,-1,-1,-1,-1,-1,-1,-1,-1,-1,-1,-1,-1,-1,-1,-1,-1,-1,-1,-1,-1,-1,-1,-1,-1,-1,-1,-1,-1,-1,-1,-1],"split_conditions":[3.1740177E0,2.4980912E0,9.837804E0,2.6237288E1,2.5939352E1,7.6566563E0,3.8001275E0,2.118283E0,2.4844873E0,2.5312088E0,2.8622334E0,3.535298E0,3.8882077E-1,1.4273216E0,1.4870297E0,1.7886701E0,1.5593493E0,1.1885614E0,1.7464358E0,1.1511094E1,2.78149E0,1.3950357E0,1.4777123E0,6.457331E-1,6.5218687E0,3.5324243E-1,5.7528514E-1,1.6705479E1,1.4830161E0,1.237328E1,2.8487413E1,9.808674E0,-3.216678E-3,1.758254E1,1.5651429E0,-1.564511E-2,1.4635388E0,-1.0267737E-2,4.7919225E-2,4.4258395E-1,8.4053665E-1,1.1242343E0,1.4389201E1,2.812297E1,2.520225E0,1.2974738E0,2.7119081E1,7.0749416E0,1.2880779E-2,6.8532836E-1,7.229644E0,3.6100116E-2,7.7002788E0,4.4258395E-1,5.3161824E-1,3.3957136E0,1.883352E1,3.371944E0,3.484791E0,1.2268652E1,1.3707327E0,4.4460387E0,3.8517084E0,-4.9053103E-2,-5.7849444E-2,-3.6120784E-2,-4.683579E-2,1.0457895E-1,-1.8377384E-2,-4.4737265E-2,-3.69772E-2,2.743475E-2,-4.5919485E-2,1.176176E-1,2.9624421E-2,-3.3390805E-2,-4.785328E-3,-9.67239E-3,1.4826241E-2,-3.2635193E-2,-3.0198644E-3,-2.3532808E-2,-4.7827613E-2,4.5543015E-3,-3.9844707E-2,3.9354187E-2,-2.6277972E-2,-7.4670725E-3,2.4970016E-3,1.1792249E-2,-4.8160194E-3,2.3638852E-2,1.1109049E-2,6.21748E-4,-2.1212364E-2,3.625905E-2,2.251858E-2,2.3112621E-2,3.5677925E-2,-2.5436753E-2,6.720958E-2,-3.15592E-2,4.166601E-2,-1.8697726E-2,-6.217713E-2,-3.6232226E-2,2.473411E-2,4.9952E-2,1.5869768E-2,7.40424E-2,5.1570553E-2,-5.2249253E-2,1.3972466E-2,-8.1950426E-4,6.760732E-2],"split_indices":[3,3,4,4,4,4,3,3,3,3,3,3,2,5,5,2,2,2,2,4,3,2,2,2,3,2,5,4,2,4,4,4,0,4,2,0,5,0,0,2,2,2,4,4,3,2,4,4,0,2,4,0,4,2,2,3,4,3,3,4,5,3,3,0,0,0,0,0,0,0,0,0,0,0,0,0,0,0,0,0,0,0,0,0,0,0,0,0,0,0,0,0,0,0,0,0,0,0,0,0,0,0,0,0,0,0,0,0,0,0,0,0,0,0,0],"split_type":[0,0,0,0,0,0,0,0,0,0,0,0,0,0,0,0,0,0,0,0,0,0,0,0,0,0,0,0,0,0,0,0,0,0,0,0,0,0,0,0,0,0,0,0,0,0,0,0,0,0,0,0,0,0,0,0,0,0,0,0,0,0,0,0,0,0,0,0,0,0,0,0,0,0,0,0,0,0,0,0,0,0,0,0,0,0,0,0,0,0,0,0,0,0,0,0,0,0,0,0,0,0,0,0,0,0,0,0,0,0,0,0,0,0,0],"sum_hessian":[2.631E3,1.406E3,1.225E3,1.086E3,3.2E2,3.58E2,8.67E2,8.11E2,2.75E2,2.48E2,7.2E1,1.08E2,2.5E2,1.66E2,7.01E2,6.04E2,2.07E2,2.73E2,2E0,1.4E1,2.34E2,4.4E1,2.8E1,9E0,9.9E1,1.2E1,2.38E2,1.38E2,2.8E1,6.66E2,3.5E1,6.03E2,1E0,2.05E2,2E0,5E0,2.68E2,1E0,1E0,5E0,9E0,1.04E2,1.3E2,1.3E1,3.1E1,1.7E1,1.1E1,8E0,1E0,7.8E1,2.1E1,4E0,8E0,1.51E2,8.7E1,4.7E1,9.1E1,1.2E1,1.6E1,1.12E2,5.54E2,2.5E1,1E1,6.6E1,5.37E2,1.22E2,8.3E1,1E0,1E0,7.5E1,1.93E2,1E0,4E0,4E0,5E0,7.2E1,3.2E1,6.6E1,6.4E1,9E0,4E0,5E0,2.6E1,3E0,1.4E1,4E0,7E0,6E0,2E0,7.2E1,6E0,1.1E1,1E1,3E0,5E0,2E1,1.31E2,2.2E1,6.5E1,7E0,4E1,2.2E1,6.9E1,6E0,6E0,8E0,8E0,1.08E2,4E0,4.34E2,1.2E2,6E0,1.9E1,1E0,9E0],"tree_param":{"num_deleted":"0","num_feature":"6","num_nodes":"115","size_leaf_vector":"1"}},{"base_weights":[-6.8252985E-3,-7.960758E-1,8.777509E-1,-9.784919E-1,-3.951929E-1,3.9378396E-1,1.087425E0,-1.0491879E0,-7.2846556E-1,-5.7872397E-1,-6.419023E-2,1.966327E-1,4.884807E-1,1.4937954E-1,1.1827103E0,-1.0967611E0,-7.561669E-1,-3.138419E-1,-3.6643665E-2,-7.802363E-1,-4.4453335E-1,1.5503702E-1,-5.2287894E-1,1.22047044E-1,2.8216237E-1,3.2321744E-2,5.129527E-1,2.7141038E-1,-8.5702384E-1,1.2694746E0,4.800848E-1,-1.1343528E0,-9.926561E-1,-8.0258775E-1,1.1206203E0,-1.9718224E-2,-1.8068552E-3,-4.9582914E-1,-1.2726634E0,3.8873947E-1,-5.390423E-1,-1.2237252E-1,1.1735054E0,2.2216749E-1,-7.1001637E-1,2.654941E-1,7.64395E-2,8.320025E-2,3.2793155E-1,-5.1173675E-1,3.011188E-1,5.20887E-1,-1.45068485E-2,4.5642462E-1,-3.6489686E-1,-5.8096327E-2,-3.8071638E-1,8.4660214E-1,1.3204627E0,-1.5205792E-1,7.333487E-1,-4.6341386E-2,-5.824368E-2,-4.0109236E-2,-5.3273737E-2,3.0107556E-2,-4.2490352E-2,-1.7917952E-2,1.0196447E-1,-3.946426E-2,6.1984914E-3,1.0654017E-3,-6.890779E-2,-6.9438773E-3,7.335599E-2,9.709439E-2,-2.9223084E-2,4.0123938E-4,-9.20304E-2,-8.645154E-3,8.866828E-2,-6.5707974E-2,6.439029E-2,-7.025381E-2,-1.8697722E-2,2.2179761E-3,1.8098857E-2,-3.7299507E-4,9.7500235E-3,1.6519664E-2,-4.0847706E-3,1.830247E-2,6.4021745E-4,-3.9159264E-2,-1.2403915E-2,-3.6692214E-3,2.815092E-2,4.748987E-2,2.5096064E-2,-8.441452E-3,3.994813E-2,-6.686478E-2,3.2402296E-2,-3.628977E-3,-2.809739E-2,4.6754178E-2,2.71626E-2,-5.7120897E-2,6.631342E-2,-4.0250547E-2,1.9022083E-2,-5.129506E-2,4.0392354E-2],"categories":[],"categories_nodes":[],"categories_segments":[],"categories_sizes":[],"default_left":[0,0,0,0,0,0,0,0,0,0,0,0,0,0,0,0,0,0,0,0,0,0,0,0,0,0,0,0,0,0,0,0,0,0,0,0,0,0,0,0,0,0,0,0,0,0,0,0,0,0,0,0,0,0,0,0,0,0,0,0,0,0,0,0,0,0,0,0,0,0,0,0,0,0,0,0,0,0,0,0,0,0,0,0,0,0,0,0,0,0,0,0,0,0,0,0,0,0,0,0,0,0,0,0,0,0,0,0,0,0,0,0,0],"id":13,"left_children":[1,3,5,7,9,11,13,15,17,19,21,23,25,27,29,31,33,35,-1,37,39,41,43,45,47,49,51,53,55,57,59,61,63,65,67,-1,-1,69,71,73,75,77,79,81,83,85,87,89,91,93,95,97,-1,99,101,-1,103,105,107,109,111,-1,-1,-1,-1,-1,-1,-1,-1,-1,-1,-1,-1,-1,-1,-1,-1,-1,-1,-1,-1,-1,-1,-1,-1,-1,-1,-1,-1,-1,-1,-1,-1,-1,-1,-1,-1,-1,-1,-1,-1,-1,-1,-1,-1,-1,-1,-1,-1,-1,-1,-1,-1],"loss_changes":[1.8389335E3,1.0140674E2,1.25604126E2,1.6133728E1,2.6510292E1,6.942375E0,7.722815E1,9.528076E0,1.6109467E-1,7.2517014E0,1.5868526E1,7.5659466E-1,2.8188515E0,1.0180396E1,4.7307373E1,1.3668823E0,1.022147E1,7.5194836E-2,0E0,1.4914505E1,1.367609E1,3.0374619E1,7.268469E0,4.2457986E-1,4.9177694E-1,2.201472E0,1.6867828E0,8.760538E0,8.646817E-1,1.3953613E1,1.4200216E1,1.840271E0,1.6002502E0,7.4764404E0,4.806876E0,0E0,0E0,1.3193478E1,5.4895325E0,1.0445242E1,1.848804E1,1.9059298E1,1.8882729E1,1.9701237E1,9.051477E0,3.2531464E-1,5.28656E-1,5.1612425E-1,5.478635E-1,1.6355717E-1,1.0221392E0,1.4674454E0,0E0,1.2342754E1,1.7611362E1,0E0,2.3843443E-1,1.585598E0,1.0408813E1,9.346387E0,9.085636E0,0E0,0E0,0E0,0E0,0E0,0E0,0E0,0E0,0E0,0E0,0E0,0E0,0E0,0E0,0E0,0E0,0E0,0E0,0E0,0E0,0E0,0E0,0E0,0E0,0E0,0E0,0E0,0E0,0E0,0E0,0E0,0E0,0E0,0E0,0E0,0E0,0E0,0E0,0E0,0E0,0E0,0E0,0E0,0E0,0E0,0E0,0E0,0E0,0E0,0E0,0E0,0E0],"parents":[2147483647,0,0,1,1,2,2,3,3,4,4,5,5,6,6,7,7,8,8,9,9,10,10,11,11,12,12,13,13,14,14,15,15,16,16,17,17,19,19,20,20,21,21,22,22,23,23,24,24,25,25,26,26,27,27,28,28,29,29,30,30,31,31,32,32,33,33,34,34,37,37,38,38,39,39,40,40,41,41,42,42,43,43,44,44,45,45,46,46,47,47,48,48,49,49,50,50,51,51,53,53,54,54,56,56,57,57,58,58,59,59,60,60],"right_children":[2,4,6,8,10,12,14,16,18,20,22,24,26,28,30,32,34,36,-1,38,40,42,44,46,48,50,52,54,56,58,60,62,64,66,68,-1,-1,70,72,74,76,78,80,82,84,86,88,90,92,94,96,98,-1,100,102,-1,104,106,108,110,112,-1,-1,-1,-1,-1,-1,-1,-1,-1,-1,-1,-1,-1,-1,-1,-1,-1,-1,-1,-1,-1,-1,-1,-1,-1,-1,-1,-1,-1,-1,-1,-1,-1,-1,-1,-1,-1,-1,-1,-1,-1,-1,-1,-1,-1,-1,-1,-1,-1,-1,-1,-1],"split_conditions":[3.1740177E0,2.3363857E0,9.837804E0,2.658854E1,2.78149E0,7.8086762E0,3.5188367E0,2.1467779E0,1.1030021E-1,9.295618E-1,2.1468075E1,7.365206E0,3.962825E-1,1.5289452E0,2.658854E1,2.228071E1,1.5593493E0,7.303609E-2,-3.6643665E-2,7.580035E-1,1.758254E1,1.0216655E0,1.2137442E0,2.246487E0,4.1708107E0,3.7708447E0,8.5582775E-1,5.5710726E0,2.7795774E1,1.136804E1,4.2284675E0,9.808674E0,1.2252992E0,2.345236E-1,1.2098426E0,-1.9718224E-2,-1.8068552E-3,6.612375E-1,5.7960325E-1,1.0153792E0,9.406186E-1,9.676163E-1,2.9042504E0,9.8082757E-1,2.5370407E1,6.354129E-1,5.722101E0,3.4265826E0,8.824057E0,1.5240438E0,5.7915134E0,4.2485872E-1,-1.45068485E-2,1.4843671E0,6.8449945E0,-5.8096327E-2,3.0104833E0,8.264426E0,7.303609E-2,1.4948754E0,2.6623142E1,-4.6341386E-2,-5.824368E-2,-4.0109236E-2,-5.3273737E-2,3.0107556E-2,-4.2490352E-2,-1.7917952E-2,1.0196447E-1,-3.946426E-2,6.1984914E-3,1.0654017E-3,-6.890779E-2,-6.9438773E-3,7.335599E-2,9.709439E-2,-2.9223084E-2,4.0123938E-4,-9.20304E-2,-8.645154E-3,8.866828E-2,-6.5707974E-2,6.439029E-2,-7.025381E-2,-1.8697722E-2,2.2179761E-3,1.8098857E-2,-3.7299507E-4,9.7500235E-3,1.6519664E-2,-4.0847706E-3,1.830247E-2,6.4021745E-4,-3.9159264E-2,-1.2403915E-2,-3.6692214E-3,2.815092E-2,4.748987E-2,2.5096064E-2,-8.441452E-3,3.994813E-2,-6.686478E-2,3.2402296E-2,-3.628977E-3,-2.809739E-2,4.6754178E-2,2.71626E-2,-5.7120897E-2,6.631342E-2,-4.0250547E-2,1.9022083E-2,-5.129506E-2,4.0392354E-2],"split_indices":[3,3,4,4,3,4,3,3,0,2,4,4,2,2,4,4,2,0,0,2,4,2,2,0,3,3,2,0,4,4,3,4,2,0,0,0,0,2,0,2,2,2,3,0,4,0,3,0,0,0,0,2,0,0,0,0,0,0,0,2,4,0,0,0,0,0,0,0,0,0,0,0,0,0,0,0,0,0,0,0,0,0,0,0,0,0,0,0,0,0,0,0,0,0,0,0,0,0,0,0,0,0,0,0,0,0,0,0,0,0,0,0,0],"split_type":[0,0,0,0,0,0,0,0,0,0,0,0,0,0,0,0,0,0,0,0,0,0,0,0,0,0,0,0,0,0,0,0,0,0,0,0,0,0,0,0,0,0,0,0,0,0,0,0,0,0,0,0,0,0,0,0,0,0,0,0,0,0,0,0,0,0,0,0,0,0,0,0,0,0,0,0,0,0,0,0,0,0,0,0,0,0,0,0,0,0,0,0,0,0,0,0,0,0,0,0,0,0,0,0,0,0,0,0,0,0,0,0,0],"sum_hessian":[2.632E3,1.391E3,1.241E3,9.55E2,4.36E2,3.76E2,8.65E2,7.42E2,2.13E2,2.8E2,1.56E2,1.23E2,2.53E2,8E1,7.85E2,6.36E2,1.06E2,3E0,2.1E2,1.1E2,1.7E2,1.06E2,5E1,6.7E1,5.6E1,1.3E1,2.4E2,7.2E1,8E0,6.98E2,8.7E1,4.6E2,1.76E2,1.04E2,2E0,2E0,1E0,7.1E1,3.9E1,1.7E1,1.53E2,8.4E1,2.2E1,1E1,4E1,1.5E1,5.2E1,1.1E1,4.5E1,4E0,9E0,2.38E2,2E0,5.6E1,1.6E1,4E0,4E0,7.7E1,6.21E2,2.5E1,6.2E1,6.3E1,3.97E2,5.2E1,1.24E2,3E0,1.01E2,1E0,1E0,4.8E1,2.3E1,3E0,3.6E1,1.2E1,5E0,2E0,1.51E2,7.9E1,5E0,7E0,1.5E1,4E0,6E0,1.2E1,2.8E1,5E0,1E1,3.1E1,2.1E1,4E0,7E0,4E1,5E0,1E0,3E0,4E0,5E0,8E0,2.3E2,2E1,3.6E1,8E0,8E0,2E0,2E0,5.8E1,1.9E1,1E0,6.2E2,1.1E1,1.4E1,2E0,6E1],"tree_param":{"num_deleted":"0","num_feature":"6","num_nodes":"113","size_leaf_vector":"1"}},{"base_weights":[8.370613E-3,-8.084251E-1,7.813175E-1,-8.8399404E-1,-4.1216123E-1,2.6276717E-1,9.095246E-1,-9.845333E-1,-7.489055E-1,3.3598852E-1,-4.5164347E-1,4.385415E-1,-4.3552002E-1,4.244153E-1,1.1422751E0,-1.0392523E0,-7.6128334E-1,1.8264465E-1,-7.676919E-1,9.186102E-1,-5.4687953E-1,-1.0105357E0,-3.9014015E-1,2.4304785E-1,7.769602E-1,-1.17547296E-1,-7.3793846E-1,3.6870027E-1,6.8689924E-1,1.2032446E0,5.5427563E-1,-9.974647E-1,-1.1646613E0,-9.6053857E-1,-4.326316E-1,-4.340533E-2,1.0278299E0,-7.9443115E-1,-5.1209354E-1,-4.653592E-1,1.0364635E-1,-4.095742E-2,-2.740252E-1,-1.1243408E0,-3.0268192E-1,1.4156078E-1,-5.52988E-1,3.544489E-1,-1.2294708E0,1.6916105E0,5.361576E-1,-5.105328E-1,6.4087987E-1,-1.133029E-1,-8.373234E-1,2.2475886E-1,4.3180767E-1,1.0018975E0,6.2044865E-1,9.59815E-1,1.2445575E0,5.508669E-2,8.780478E-1,-5.116188E-2,-3.3305507E-2,-4.386404E-3,-5.8659445E-2,-2.4515215E-2,-5.584657E-2,1.4874523E-2,-4.1490275E-2,7.530556E-2,2.0608079E-2,-4.3564327E-2,-3.506725E-2,-2.9985845E-2,1.6318087E-2,2.7735485E-2,-4.951427E-2,-3.0564845E-3,-1.6230691E-2,-2.712935E-2,-6.365215E-2,3.9429367E-2,-4.646504E-2,-2.4263216E-2,4.7944006E-2,-6.14998E-2,-1.9616127E-2,1.3471213E-2,1.0333606E-1,-8.5446745E-2,2.294618E-2,9.555459E-2,2.7769674E-2,-6.4186044E-2,3.7327703E-2,-3.8864758E-2,5.856491E-2,5.828326E-2,-4.8608713E-2,4.097561E-2,-2.7569238E-2,-4.4153612E-2,5.372447E-3,8.616395E-3,1.969097E-2,-2.2566063E-2,2.1919066E-2,5.2622236E-2,1.4938003E-2,2.4418891E-3,3.2688428E-2,5.031963E-2,3.3523377E-2,4.0407628E-2,6.398972E-2,1.2451865E-2,-3.6494844E-2,2.9161379E-2,5.43573E-2],"categories":[],"categories_nodes":[],"categories_segments":[],"categories_sizes":[],"default_left":[0,0,0,0,0,0,0,0,0,0,0,0,0,0,0,0,0,0,0,0,0,0,0,0,0,0,0,0,0,0,0,0,0,0,0,0,0,0,0,0,0,0,0,0,0,0,0,0,0,0,0,0,0,0,0,0,0,0,0,0,0,0,0,0,0,0,0,0,0,0,0,0,0,0,0,0,0,0,0,0,0,0,0,0,0,0,0,0,0,0,0,0,0,0,0,0,0,0,0,0,0,0,0,0,0,0,0,0,0,0,0,0,0,0,0,0,0,0,0,0,0],"id":14,"left_children":[1,3,5,7,9,11,13,15,17,19,21,23,25,27,29,31,33,35,37,39,41,43,45,47,49,51,53,55,57,59,61,63,65,67,69,-1,71,73,75,77,-1,-1,79,81,83,85,87,89,91,93,95,97,99,101,103,105,107,109,111,113,115,117,119,-1,-1,-1,-1,-1,-1,-1,-1,-1,-1,-1,-1,-1,-1,-1,-1,-1,-1,-1,-1,-1,-1,-1,-1,-1,-1,-1,-1,-1,-1,-1,-1,-1,-1,-1,-1,-1,-1,-1,-1,-1,-1,-1,-1,-1,-1,-1,-1,-1,-1,-1,-1,-1,-1,-1,-1,-1,-1],"loss_changes":[1.6711564E3,3.8175232E1,9.017633E1,1.3930908E1,6.295784E0,3.3453796E1,1.2258649E2,6.7338867E0,8.277924E0,6.1605277E0,6.411747E0,1.4167603E1,5.2021027E0,4.938362E0,2.571875E1,1.416626E0,7.770134E0,9.773061E0,2.7097168E0,1.2147431E1,1.4698136E-1,1.1902695E0,1.5663824E1,2.3237366E1,1.649279E1,8.672615E0,1.6433525E0,2.5826607E0,6.552181E-1,5.503296E0,1.1426899E1,2.52948E0,9.715729E-1,5.115036E0,1.4456144E1,0E0,1.1460147E0,2.3292847E0,3.575264E0,2.6911645E0,0E0,0E0,2.3236811E-2,6.933956E-1,3.4680746E0,2.249491E1,1.452795E1,1.8369274E1,8.879516E0,2.928646E0,2.5463705E1,9.434778E0,9.598301E0,2.4951136E0,1.1322174E0,7.476225E-1,1.3821449E0,5.446434E-3,9.7750854E-1,6.864319E-1,7.6693726E0,4.596965E0,2.016739E0,0E0,0E0,0E0,0E0,0E0,0E0,0E0,0E0,0E0,0E0,0E0,0E0,0E0,0E0,0E0,0E0,0E0,0E0,0E0,0E0,0E0,0E0,0E0,0E0,0E0,0E0,0E0,0E0,0E0,0E0,0E0,0E0,0E0,0E0,0E0,0E0,0E0,0E0,0E0,0E0,0E0,0E0,0E0,0E0,0E0,0E0,0E0,0E0,0E0,0E0,0E0,0E0,0E0,0E0,0E0,0E0,0E0,0E0],"parents":[2147483647,0,0,1,1,2,2,3,3,4,4,5,5,6,6,7,7,8,8,9,9,10,10,11,11,12,12,13,13,14,14,15,15,16,16,17,17,18,18,19,19,20,20,21,21,22,22,23,23,24,24,25,25,26,26,27,27,28,28,29,29,30,30,31,31,32,32,33,33,34,34,36,36,37,37,38,38,39,39,42,42,43,43,44,44,45,45,46,46,47,47,48,48,49,49,50,50,51,51,52,52,53,53,54,54,55,55,56,56,57,57,58,58,59,59,60,60,61,61,62,62],"right_children":[2,4,6,8,10,12,14,16,18,20,22,24,26,28,30,32,34,36,38,40,42,44,46,48,50,52,54,56,58,60,62,64,66,68,70,-1,72,74,76,78,-1,-1,80,82,84,86,88,90,92,94,96,98,100,102,104,106,108,110,112,114,116,118,120,-1,-1,-1,-1,-1,-1,-1,-1,-1,-1,-1,-1,-1,-1,-1,-1,-1,-1,-1,-1,-1,-1,-1,-1,-1,-1,-1,-1,-1,-1,-1,-1,-1,-1,-1,-1,-1,-1,-1,-1,-1,-1,-1,-1,-1,-1,-1,-1,-1,-1,-1,-1,-1,-1,-1,-1,-1,-1],"split_conditions":[2.8913774E0,2.4980912E0,3.619718E0,2.228071E1,2.520225E0,2.6019922E1,1.014907E1,2.2065036E0,2.2497538E1,1.8091894E1,7.8692126E0,1.8698757E1,2.70383E1,9.3634615E0,2.6930977E1,1.9255629E1,1.6186218E1,1.8563784E0,3.0979214E1,1.1511094E1,2.012445E1,2.7988465E0,1.2441711E1,1.7486658E1,2.012445E1,2.7370035E1,2.9526436E0,7.6566563E0,7.1236696E0,1.2441711E1,4.7985215E0,1.9180815E1,1.288942E1,2.2802787E0,1.758254E1,-4.340533E-2,2.005883E1,2.6623142E1,2.4520493E0,5.714658E0,1.0364635E-1,-4.095742E-2,2.806502E1,7.2882395E0,5.2635937E0,1.0462178E1,1.6813599E1,1.6971247E1,1.8322159E1,3.416082E0,2.0459942E1,2.6930977E1,3.002648E1,2.7071955E1,3.5964944E0,6.386817E0,3.6952322E0,9.9570465E0,7.532183E0,1.5008009E1,3.8001275E0,2.9907566E1,2.8181824E1,-5.116188E-2,-3.3305507E-2,-4.386404E-3,-5.8659445E-2,-2.4515215E-2,-5.584657E-2,1.4874523E-2,-4.1490275E-2,7.530556E-2,2.0608079E-2,-4.3564327E-2,-3.506725E-2,-2.9985845E-2,1.6318087E-2,2.7735485E-2,-4.951427E-2,-3.0564845E-3,-1.6230691E-2,-2.712935E-2,-6.365215E-2,3.9429367E-2,-4.646504E-2,-2.4263216E-2,4.7944006E-2,-6.14998E-2,-1.9616127E-2,1.3471213E-2,1.0333606E-1,-8.5446745E-2,2.294618E-2,9.555459E-2,2.7769674E-2,-6.4186044E-2,3.7327703E-2,-3.8864758E-2,5.856491E-2,5.828326E-2,-4.8608713E-2,4.097561E-2,-2.7569238E-2,-4.4153612E-2,5.372447E-3,8.616395E-3,1.969097E-2,-2.2566063E-2,2.1919066E-2,5.2622236E-2,1.4938003E-2,2.4418891E-3,3.2688428E-2,5.031963E-2,3.3523377E-2,4.0407628E-2,6.398972E-2,1.2451865E-2,-3.6494844E-2,2.9161379E-2,5.43573E-2],"split_indices":[3,3,3,4,3,4,4,3,4,1,1,1,4,4,4,4,4,3,1,4,1,3,4,4,1,1,3,4,1,4,3,1,1,3,4,0,1,4,3,1,0,0,1,4,1,4,1,4,1,3,1,4,1,4,3,3,3,4,1,1,3,1,1,0,0,0,0,0,0,0,0,0,0,0,0,0,0,0,0,0,0,0,0,0,0,0,0,0,0,0,0,0,0,0,0,0,0,0,0,0,0,0,0,0,0,0,0,0,0,0,0,0,0,0,0,0,0,0,0,0,0],"split_type":[0,0,0,0,0,0,0,0,0,0,0,0,0,0,0,0,0,0,0,0,0,0,0,0,0,0,0,0,0,0,0,0,0,0,0,0,0,0,0,0,0,0,0,0,0,0,0,0,0,0,0,0,0,0,0,0,0,0,0,0,0,0,0,0,0,0,0,0,0,0,0,0,0,0,0,0,0,0,0,0,0,0,0,0,0,0,0,0,0,0,0,0,0,0,0,0,0,0,0,0,0,0,0,0,0,0,0,0,0,0,0,0,0,0,0,0,0,0,0,0,0],"sum_hessian":[2.645E3,1.286E3,1.359E3,1.079E3,2.07E2,2.7E2,1.089E3,6.15E2,4.64E2,1E1,1.97E2,2.16E2,5.4E1,3.54E2,7.35E2,4.91E2,1.24E2,9E0,4.55E2,6E0,4E0,1.8E1,1.79E2,1.38E2,7.8E1,2.7E1,2.7E1,2.94E2,6E1,6.65E2,7E1,3.75E2,1.16E2,7.6E1,4.8E1,4E0,5E0,4.1E2,4.5E1,3E0,3E0,1E0,3E0,1.5E1,3E0,4.2E1,1.37E2,1.29E2,9E0,1.5E1,6.3E1,1.8E1,9E0,4E0,2.3E1,9.1E1,2.03E2,8E0,5.2E1,1E2,5.65E2,2.8E1,4.2E1,3.46E2,2.9E1,1E0,1.15E2,2E1,5.6E1,1.7E1,3.1E1,2E0,3E0,2.2E2,1.9E2,4.1E1,4E0,1E0,2E0,1E0,2E0,4E0,1.1E1,1E0,2E0,2.4E1,1.8E1,2.5E1,1.12E2,1.24E2,5E0,7E0,2E0,1.2E1,3E0,6E0,5.7E1,1.6E1,2E0,7E0,2E0,1E0,3E0,2.2E1,1E0,7.1E1,2E1,1E0,2.02E2,7E0,1E0,3E0,4.9E1,8.4E1,1.6E1,4.4E1,5.21E2,2.3E1,5E0,1.9E1,2.3E1],"tree_param":{"num_deleted":"0","num_feature":"6","num_nodes":"121","size_leaf_vector":"1"}},{"base_weights":[2.9110217E-2,-1.723545E-1,5.618508E-1,-3.6303216E-1,-2.4184706E-2,2.8251958E-1,6.756462E-1,-3.0259794E-1,-5.928893E-1,5.837014E-2,-3.5162959E-1,3.098544E-1,-4.4983304E-1,4.8651844E-1,9.080731E-1,-3.8677254E-1,-5.1780257E-2,-5.1672655E-1,-7.4278784E-1,-4.0697046E-2,2.1178089E-1,-2.51169E-1,-4.988561E-1,3.2177275E-1,-5.2739408E-2,2.5744323E-2,-8.572206E-1,6.3193417E-1,-2.4463707E-1,3.8089228E-1,9.485504E-1,-1.798063E-1,-5.255383E-1,6.719935E-1,-1.6544475E-1,-5.984161E-1,1.8910517E-1,-8.449157E-1,-5.323407E-1,2.277041E-2,-4.8922524E-1,3.5188985E-1,-6.2968545E-2,-3.4270653E-1,3.0645794E-1,-6.2178624E-1,-3.074332E-1,2.938107E-1,4.459324E-2,-6.640839E-2,3.7437867E-2,3.128124E-1,7.0676124E-1,-5.9227556E-2,-1.0779705E-1,4.8482934E-1,-1.04094744E-1,1.056571E0,6.9900477E-1,-1.6675126E-2,2.0499205E-2,-2.8928408E-2,-8.51788E-3,-5.144402E-2,5.4211196E-2,-4.2529423E-3,-5.279996E-2,-1.2403307E-2,-3.245169E-2,2.6608834E-2,-2.3312228E-2,-1.0120393E-3,-4.339498E-2,-1.7121365E-2,-3.369298E-2,-3.5129633E-2,2.4399855E-3,-3.7809413E-2,5.306744E-3,4.825653E-2,1.500387E-2,-2.9080158E-2,1.333152E-2,-2.1407368E-2,6.6008554E-3,2.20483E-2,-2.7895352E-2,-2.0080581E-2,-3.542429E-2,1.63774E-2,-2.1020778E-2,1.5393159E-2,-1.0007626E-2,2.3141233E-2,-3.0525913E-2,2.939249E-2,5.0780125E-2,